-0.0008676983416080475,0.026512663811445236,0.024231158196926117,0.00356408953666687,-0.032895397394895554,0.021751724183559418,0.033599015325307846,-0.008321920409798622,-0.008097290992736816,-0.005983684211969376,-0.0014778897166252136,0.033857714384794235,0.01468612253665924,-0.03042401373386383,-0.018899356946349144,-0.0029557347297668457,-0.018480731174349785,-0.031352028250694275,0.010393038392066956,0.02932823821902275,0.007054269313812256,-0.0040150173008441925,0.0356350876390934,-0.014161990955471992,-0.0221333596855402,-0.0051215216517448425,-0.02471883036196232,-0.0003973841667175293,-0.03535058721899986,-0.033005017787218094,-0.0027573145925998688,0.021938752382993698,0.0039803385734558105,-0.034279126673936844,0.029155071824789047,0.030086699873209,-0.00026676058769226074,0.021405383944511414,0.008817404508590698,-0.01435512863099575,0.012270178645849228,-0.005377862602472305,-0.01548745483160019,0.031040076166391373,-0.02285505272448063,0.009116172790527344,0.018889326602220535,-0.011014623567461967,-0.008591264486312866,-0.02315162494778633,0.01899014785885811,-0.009883390739560127,-0.030465038493275642,0.01894846186041832,-0.02358531951904297,-0.0012708716094493866,-0.014525741338729858,0.025828789919614792,0.02019166201353073,-0.01711481437087059,0.02352645993232727,-0.0010550841689109802,0.0011129304766654968,0.022178009152412415,-0.018552325665950775,0.004569791257381439,-0.010542111471295357,0.01943087950348854,0.02854602411389351,0.015695251524448395,0.0007780566811561584,0.00936349481344223,0.03140551969408989,-0.028133580461144447,-0.0010229423642158508,0.0063050277531147,-0.002453293651342392,0.0010874010622501373,-0.022926926612854004,0.02243756130337715,0.0057441480457782745,-0.0156750176101923,-0.02158454619348049,-0.02264367789030075,0.0073816850781440735,0.027198124676942825,-0.03542249649763107,-0.00586380809545517,-0.032473981380462646,-0.017275627702474594,0.0018928423523902893,-0.008744874969124794,-0.025769570842385292,0.035391006618738174,5.415081977844238e-05,-0.03465522825717926,0.030519839376211166,0.025235239416360855,-0.014767246320843697,-0.012651495635509491,-0.03419480472803116,0.017802033573389053,-0.003572080284357071,-0.027432844042778015,0.005449347198009491,-0.0273754745721817,-0.012969758361577988,-0.00045623257756233215,0.03164626285433769,0.021127063781023026,0.03514549508690834,-0.013538846746087074,-0.0006511583924293518,0.032230254262685776,0.02175060287117958,0.03433529660105705,-0.021579930558800697,-0.031977348029613495,-0.020002413541078568,0.014010567218065262,-0.02818533405661583,-0.004978600889444351,0.025988519191741943,-0.016304736956954002,0.02388782799243927,-0.035658448934555054,-0.007740233093500137,-0.008999543264508247,