0.02730495110154152,0.029643144458532333,-0.008366875350475311,0.032807547599077225,-0.007825128734111786,0.007206812500953674,-0.01738768070936203,0.020974382758140564,0.03148367628455162,-0.026201006025075912,0.03104272112250328,0.006684262305498123,0.02638603374361992,0.004836805164813995,0.017221003770828247,-0.005042536184191704,0.027531635016202927,0.005278889089822769,-0.016672855243086815,0.009103510528802872,-0.01645488105714321,-0.004188317805528641,-0.014505654573440552,0.023691821843385696,-0.028191793709993362,-0.016464656218886375,-0.010084813460707664,-0.021474018692970276,0.0033708252012729645,-0.03527425602078438,0.032253894954919815,-0.03033815324306488,0.027572404593229294,0.00594354048371315,-0.011596590280532837,0.022069644182920456,0.005566097795963287,0.028855834156274796,0.003904275596141815,-0.011263327673077583,0.009595844894647598,-0.009684979915618896,0.015030626207590103,0.0318865068256855,0.020644985139369965,-0.015613306313753128,0.020616594702005386,0.006390221416950226,0.018136966973543167,-0.02176803909242153,-0.035353876650333405,-0.013798590749502182,-0.027393674477934837,0.02930496260523796,0.010286834090948105,0.014793340116739273,0.011295042932033539,-0.0006212852895259857,0.02795029804110527,-0.02537548542022705,0.002248704433441162,-0.024376437067985535,0.011012572795152664,-0.012299368157982826,0.010943438857793808,-0.0074407681822776794,0.02962113544344902,-0.021167926490306854,-0.021299928426742554,-0.021301215514540672,0.032122958451509476,0.011901825666427612,0.034366097301244736,-0.029474154114723206,-0.03542415052652359,-0.027941564098000526,-0.024024611338973045,0.01446571946144104,0.012788422405719757,0.02967587485909462,-0.018443763256072998,-0.02434685081243515,0.018949221819639206,-0.014435874298214912,0.021675851196050644,-0.00847502239048481,0.02043021097779274,-0.02774885855615139,-0.018023205921053886,0.010888446122407913,0.007550269365310669,-0.00910566933453083,0.021288197487592697,0.024278901517391205,-0.025899048894643784,-0.019066721200942993,0.032702211290597916,-0.012051161378622055,-0.012661300599575043,-0.034556951373815536,-0.020452508702874184,0.008921559900045395,-0.0047140419483184814,-0.025924500077962875,0.0008377395570278168,-0.024395769461989403,-0.030299881473183632,-0.01966652274131775,-0.03125757724046707,-0.022740647196769714,0.03570031747221947,0.006745535880327225,0.0110057033598423,-0.03331015631556511,-0.023456208407878876,-0.011887708678841591,0.005584683269262314,-0.03142576292157173,-0.015388322994112968,-0.021381020545959473,9.897351264953613e-05,-0.013289401307702065,-0.0024748481810092926,-0.024201061576604843,-0.02451411448419094,-0.02083577960729599,-0.012224908918142319,-0.02818860486149788,0.029945354908704758,-0.0070880018174648285,0.030728455632925034,0.011127933859825134,-0.03024275042116642,0.024715542793273926,-0.009826600551605225,-0.013690216466784477,-0.029645375907421112,-0.035505738109350204,0.010218236595392227,-0.007801566272974014,0.013904396444559097,-0.029309410601854324,0.026515327394008636,-0.026216205209493637,-0.006166905164718628,0.007459633052349091,0.018437564373016357,0.028832513839006424,0.03253426030278206,-0.028318649157881737,0.008988115936517715,-0.015361642464995384,-0.003913741558790207,-0.026731789112091064,0.03253066912293434,-0.02621251903474331,0.019087545573711395,0.012551415711641312,0.01160556823015213,-0.019308794289827347,0.032462555915117264,0.007848229259252548,0.004594288766384125,-0.03147338703274727,0.014992445707321167,-0.005357878282666206,-0.016361583024263382,0.030676666647195816,0.007962457835674286,-0.019759872928261757,-0.018076390027999878,-0.0017055608332157135,0.019941475242376328,-0.0091262087225914,-0.02037767507135868,-0.012230103835463524,-0.026681244373321533,0.01273687556385994,0.027644295245409012,-0.033622872084379196,0.008294668048620224,0.018449708819389343,0.00647604838013649,-0.012718737125396729,0.01864079013466835,0.018768329173326492,0.013354543596506119,-0.006275765597820282,-0.009457187727093697,0.003820747137069702,-0.006309075281023979,-0.010642895475029945,0.02282881736755371,0.030692841857671738,-0.003535620868206024,-0.007996316999197006,0.0005211532115936279,-0.0021324381232261658,0.008586116135120392,0.010008342564105988,-0.03243774175643921,-0.013179920613765717,0.030076052993535995,0.013912677764892578,-0.0017763413488864899,-0.021532349288463593,-0.021850183606147766,-0.03199167549610138,-0.011641515418887138,0.012060865759849548,0.022772204130887985,0.016489192843437195,-0.031569432467222214,-0.0214772317558527,-0.005636308342218399,0.03454819694161415,0.005166340619325638,-0.009248955175280571,0.01477554440498352,-0.013602912425994873,-0.023116275668144226,0.026067402213811874,-0.0162393506616354,-0.007159527391195297,-0.03552872687578201,0.023902524262666702,0.027058381587266922,0.013016007840633392,-0.024902651086449623,-0.03524785488843918,-0.029006393626332283,0.026632152497768402,0.017146635800600052,0.03005373105406761,0.018709640949964523,0.009039007127285004,-0.0003497377038002014,-0.02716093137860298,-0.03059900738298893,-0.03340531140565872,0.014620069414377213,-0.017534572631120682,-0.00718759186565876,-0.02055376023054123,-0.006507985293865204,-0.02513696253299713,-0.023336276412010193,0.011846814304590225,-0.010614156723022461,0.022047970443964005,-0.011457456275820732,-0.02619883045554161,-0.006301390007138252,-0.01731240749359131,-0.010926485061645508,-0.03399984538555145,0.01998182013630867,-0.024864450097084045,0.0179506354033947,0.01620658114552498,0.02551545575261116,-0.027394717559218407,0.02568560093641281,-0.016883987933397293,0.013252470642328262,0.03353981301188469,-0.0050368532538414,-0.00027619674801826477,-0.008222520351409912,-0.02982087805867195,0.017139390110969543,-0.03545420989394188,0.022171426564455032,0.02672232687473297,0.03377522900700569,-0.008424269035458565,-0.029344355687499046,0.008029654622077942,0.019729547202587128,-0.035546742379665375,-0.00810655951499939,-0.02140912413597107,-0.003123704344034195,-0.017579054459929466,-0.014598842710256577,-0.011337816715240479,-0.033939432352781296,0.029303845018148422,0.029940400272607803,-0.005602465942502022,-0.004067216068506241,-0.014575712382793427,-0.032252244651317596,-0.0347551591694355,0.013273514807224274,-0.019608791917562485,-0.022959893569350243,-0.002786543220281601,-0.011893255636096,-0.011554313823580742,0.0011475421488285065,-0.0075754448771476746,-0.012296872213482857,-0.01710021123290062,-0.029065266251564026,0.029946688562631607,-0.01429239846765995,0.009463552385568619,-0.01239163987338543,0.002902187407016754,0.03329644724726677,0.016454383730888367,-0.030949989333748817,0.01417510211467743,0.033901531249284744,0.009395834058523178,0.023943740874528885,0.035210270434617996,-0.005472464486956596,0.007412660866975784,-0.02482268214225769,-0.00735989585518837,0.026449423283338547,0.01830878108739853,-0.022599607706069946,-0.028638752177357674,-0.024405846372246742,-0.035245634615421295,-0.02755853533744812,-0.008832050487399101,0.02410275861620903,0.005977936089038849,-0.027164481580257416,-0.028650855645537376,0.01776697486639023,-0.026565760374069214,-0.004397410899400711,0.017132360488176346,-0.016529003158211708,-0.003894280642271042,-0.0031087324023246765,-0.008449405431747437,-0.018108291551470757,-0.031837087124586105,-0.02886989340186119,-0.019123632460832596,0.034494202584028244,-0.017250526696443558,-0.023983143270015717,0.008656937628984451,0.00984322652220726,0.019568204879760742,0.02714715525507927,0.019888363778591156,-0.03541075065732002,0.003167450428009033,0.021634038537740707,-0.0033009089529514313,-0.021045684814453125,0.03404785320162773,-0.013358138501644135,-0.020333733409643173,-0.03219839558005333,0.0015952959656715393,0.015826184302568436,0.007905814796686172,0.007062491029500961,-0.02708526700735092,-0.03335311636328697,0.0006289072334766388,0.03256550803780556,0.020604334771633148,-0.020794082432985306,-0.004636019468307495,-0.026327986270189285,-0.017229408025741577,0.006467796862125397,0.019447803497314453,0.029584620147943497,-0.032789506018161774,0.023879114538431168,-0.025189004838466644,0.013373829424381256,0.030223045498132706,0.0005015134811401367,0.03249317780137062,-0.03043041191995144,-0.013641400262713432,0.020830463618040085,-0.007780995219945908,-0.0073107220232486725,-0.014885418117046356,0.024618078023195267,0.017517972737550735,0.01144464686512947,-0.020070131868124008,-0.028991058468818665,0.0038628801703453064,0.01058138906955719,-0.01648971065878868,-0.009992774575948715,0.024120274931192398,0.00284498929977417,0.0016113705933094025,-0.0087893046438694,-0.032342489808797836,-0.03358062356710434,-0.01707196794450283,-0.018154336139559746,0.011126913130283356,-0.010396813973784447,-0.013972219079732895,0.034051064401865005,0.01244010403752327,0.025460798293352127,-0.017289740964770317,-0.014588100835680962,0.013126447796821594,-0.023795541375875473,-0.02334657311439514,-0.0017249882221221924,-0.01306288130581379,-0.026773501187562943,0.021184250712394714,0.028720106929540634,0.0057936906814575195,-0.006218330934643745,-0.03308118134737015,-0.01300852745771408,0.009092345833778381,0.016840390861034393,-0.0045149121433496475,-0.014119744300842285,0.019900932908058167,-0.028442848473787308,0.022572070360183716,-0.013855529949069023,0.000546623021364212,-0.0070577096194028854,0.00432996079325676,-0.010792801156640053,0.025968819856643677,-0.0009284690022468567,0.02787855640053749,0.03433858975768089,-0.017399678006768227,-0.02605389803647995,0.028653647750616074,0.027986209839582443,-0.027269547805190086,-0.002760831266641617,-0.035218797624111176,-0.029235683381557465,0.006897948682308197,0.00950123742222786,0.0075707510113716125,-0.009720169007778168,0.03294920548796654,0.005106355994939804,-0.021074458956718445,-0.002021919935941696,0.008576616644859314,0.0125068798661232,-0.02525288797914982,0.013385344296693802,-0.018245775252580643,-0.029676442965865135,-0.019507408142089844,0.034443195909261703,0.03053063526749611,0.03198159113526344,0.020964685827493668,0.026980344206094742,-0.004780348390340805,-0.01965099573135376,0.017844878137111664,-0.018506526947021484,-0.024102352559566498,-0.011404788121581078,0.007494974881410599,0.018385592848062515,-0.013871751725673676,-0.021020226180553436,0.004817608743906021,-0.021051187068223953,-0.023252194747328758,0.018616139888763428,-0.005999449640512466,0.03263517841696739,0.034742239862680435,0.01068234071135521,0.012291345745325089,0.008224420249462128,0.0005593188107013702,-0.0025975890457630157,0.0004908628761768341,0.013336598873138428,0.03320610150694847,-0.009255683049559593,-0.015096992254257202,-0.008648745715618134,-0.017254438251256943,0.006072811782360077,0.02665887400507927,0.027927767485380173,0.016397342085838318,-0.026283269748091698,-0.019168028607964516,-0.007846836000680923,-0.00658300518989563,0.0029374174773693085,-0.03278469666838646,0.01111588254570961,-0.027245432138442993,-0.0225980244576931,-0.029692234471440315,0.03111856058239937,-0.033819280564785004,0.02694166824221611,-0.001200605183839798,-0.004153527319431305,0.022338520735502243,-0.003300987184047699,0.022398363798856735,0.02582196518778801,-0.03100750409066677,0.013742286711931229,0.00674210861325264,0.0076789893209934235,0.005213979631662369,0.009768962860107422,-0.01718095876276493,-0.0045693255960941315,0.03393286094069481,0.023994624614715576,-0.0013417303562164307,-0.03359039127826691,0.0015652775764465332,-0.024320483207702637,0.029042553156614304,-0.021681692451238632,-0.0025786273181438446,-0.007926523685455322,0.006355494260787964,0.03360813483595848,0.0033935420215129852,0.020684432238340378,0.027722205966711044,0.02883254364132881,-0.012333981692790985,-0.007987737655639648,0.01721206307411194,-0.009745275601744652,0.016723714768886566,-0.007802419364452362,-0.024223297834396362,0.014537263661623001,0.005475644022226334,0.015923157334327698,0.03548164293169975,0.024383321404457092,0.03385647013783455,0.0019115284085273743,-0.0307218786329031,-0.02505454421043396,-0.02218477800488472,-0.031473156064748764,-0.017901698127388954,-0.032877422869205475,-0.032950546592473984,-0.0213412344455719,-0.03520835563540459,-0.021921873092651367,0.013618167489767075,0.02978760376572609,-0.010623672977089882,-0.010388528928160667,0.019069761037826538,-0.0176203902810812,-0.0168868787586689,0.0220046266913414,-0.031117917969822884,0.004366956651210785,0.0315493606030941,0.006124518811702728,0.009712278842926025,-0.020799685269594193,-0.000492732971906662,0.001963730901479721,0.008765511214733124,0.013876643031835556,0.031033139675855637,-0.02726069651544094,0.0010705478489398956,-0.017844153568148613,-0.028252283111214638,-0.002859916538000107,-0.03143703192472458,0.024924974888563156,0.004136241972446442,-0.01924850419163704,0.018663540482521057,-0.03380100056529045,-0.013814257457852364,-0.006957812234759331,-0.03034822642803192,-0.022710299119353294,-0.005829237401485443,0.02709874138236046,0.03448765352368355,0.022723659873008728,-0.02132585644721985,-0.023365043103694916,0.031167615205049515,0.012632764875888824,0.0009488463401794434,0.004833288490772247,-0.02870345674455166,-0.011924481019377708,0.03437921777367592,-0.00880829431116581,-0.0017915740609169006,-0.02965468354523182,-0.019978826865553856,-0.0007292702794075012,-0.02218426764011383,-0.0044289156794548035,0.014534257352352142,-0.03493490442633629,0.010607574135065079,-0.02361457794904709,-0.017430394887924194,0.013711061328649521,0.028397154062986374,-0.00976102240383625,-0.014663182199001312,-0.0322941392660141,-0.01841634511947632,-0.03127275034785271,-0.008173946291208267,0.007287696003913879,-0.033459849655628204,0.031182628124952316,0.022406816482543945,-0.034962352365255356,-0.017058322206139565,0.011648401618003845,-0.007337842136621475,-0.003892015665769577,-0.01612555980682373,0.028686415404081345,-0.019964223727583885,0.029617030173540115,0.00230436772108078,0.007179349660873413,0.027861852198839188,-0.0058844853192567825,-0.02033369243144989,-0.005776222795248032,0.02896619215607643,-0.0264995489269495,0.008106444031000137,-0.03509969636797905,0.01872507855296135,0.013195276260375977,0.0015140101313591003,0.01532832533121109,4.016980528831482e-05,0.01976260170340538,-0.02827216126024723,-0.005244731903076172,0.015843380242586136,0.03556488826870918,0.018192552030086517,-0.025970514863729477,0.027467746287584305,-0.007964223623275757,-0.007625516504049301,-0.03246106207370758,-0.0056219398975372314,0.025261670351028442,0.004980172961950302,-0.020801927894353867,0.010993290692567825,-0.011451585218310356,0.032606933265924454,-0.030998380854725838,-0.011281268671154976,-0.03448477014899254,-0.014065364375710487,0.011258844286203384,0.03437909856438637,0.005998082458972931,0.035012807697057724,0.006987575441598892,0.020626287907361984,0.028630796819925308,0.02985440567135811,-0.019990134984254837,0.03283536061644554,0.021634481847286224,-0.016699250787496567,-0.0170429777354002,-0.029955223202705383,0.00896918773651123,-0.028948189690709114,0.015086594969034195,0.011278487741947174,-0.03102865070104599,0.00973217561841011,-0.002904660999774933,0.016314920037984848,0.020492486655712128,-0.035505183041095734,0.03275353088974953,0.02995150163769722,0.014210131019353867,-0.032641466706991196,-0.012757884338498116,-0.010350316762924194,-0.00917849875986576,0.020140111446380615,0.012984663248062134,0.028292115777730942,-0.013375828042626381,0.01201927661895752,0.012706968933343887,-0.029735388234257698,-0.034643568098545074,-0.01853175275027752,0.024448130279779434,-0.03362356126308441,-0.03108692355453968,0.020007163286209106,0.01926889270544052,0.029371168464422226,-0.026962097734212875,-0.0261392779648304,0.018320951610803604,0.03105822578072548,0.021369244903326035,0.00559471920132637,0.011770524084568024,0.03389738127589226,-0.023043012246489525,-0.016214707866311073,0.02498096227645874,-0.024437129497528076,-0.01969330757856369,0.026071112602949142,0.011268645524978638,0.011538214981555939,-0.015137158334255219,-0.0004928745329380035,0.03268688544631004,-0.021436432376503944,0.00028079375624656677,0.0169856995344162,-0.024655580520629883,0.03468489274382591,-0.017843235284090042,-0.0085762869566679,-0.009663224220275879,-0.023273533210158348,-0.035045165568590164,0.02013755962252617,0.009488362818956375,-0.03345002979040146,-0.022986672818660736,0.03529885783791542,0.013651251792907715,0.014330167323350906,-0.021367788314819336,-0.015657003968954086,-0.0053912196308374405,-0.0065314266830682755,-0.0244731567800045,0.0029423199594020844,0.003549572080373764,-0.0045221783220767975,0.00495113804936409,-0.014155380427837372,0.00929471105337143,0.013469301164150238,-0.018812108784914017,-0.03541354089975357,0.018694087862968445,0.008519168943166733,-0.018163856118917465,0.034417930990457535,-0.01615171507000923,0.024133816361427307,0.018118876963853836,-0.02994314767420292,0.023033618927001953,-0.03283832222223282,-0.01978623867034912,-0.005954103544354439,-0.02407309040427208,0.034889642149209976,-0.007163558155298233,0.0141853466629982,-0.03188971430063248,0.020559515804052353,-0.011099420487880707,-0.027166832238435745,0.005222249776124954,0.01730220764875412,0.0309070385992527,-0.021814024075865746,-0.017575154080986977,0.006866533309221268,0.00968790054321289,0.013731151819229126,0.019602686166763306,-0.00809834711253643,0.01984177529811859,0.026331841945648193,-0.009329341351985931,0.025409188121557236,0.017449267208576202,0.0315018855035305,-0.02029549703001976,-0.01763603650033474,-0.010326391085982323,0.0018116533756256104,0.021435678005218506,-0.020387953147292137,0.017880499362945557,-0.012799335643649101,0.021575331687927246,-0.0016956143081188202,-0.03128882125020027,-0.019651640206575394,-0.02584828808903694,0.017712946981191635,-0.023948151618242264,-0.002975650131702423,0.007705565541982651,-0.01958552561700344,0.010302502661943436,-0.03487226366996765,-0.025553874671459198,-0.032361552119255066,-0.01080276258289814,-0.013010621070861816,0.005114048719406128,-0.006604088470339775,0.016788646578788757,0.032742690294981,0.012813970446586609,-0.014070268720388412,-0.03344234451651573,0.012935783714056015,-0.017694925889372826,0.018174156546592712,0.02387446165084839,0.01377573236823082,0.033511098474264145,0.03392130509018898,0.007562138140201569,-0.026022741571068764,0.03190862014889717,-0.016946278512477875,-0.016869772225618362,0.029884953051805496,0.027671795338392258,0.010791119188070297,0.002238709479570389,-0.030041640624403954,-0.003707289695739746,0.034254517406225204,0.009094957262277603,0.0030577853322029114,-0.007416108623147011,-0.012456512078642845,0.021286528557538986,0.0022024475038051605,0.023234795778989792,-0.006321379914879799,0.015603899955749512,0.01474178209900856,0.0056951455771923065,0.022441893815994263,0.02238021418452263,0.03310440108180046,0.027456287294626236,-0.0091320239007473,-0.030236437916755676,0.006529197096824646,-0.00031172484159469604,-0.009315192699432373,-0.00598052516579628,0.0016797445714473724,0.02605821192264557,0.011133614927530289,-0.012681940570473671,-0.01468660682439804,-0.008843975141644478,-0.013803677633404732,0.03211510553956032,0.01891590654850006,0.03224913403391838,0.00011405721306800842,0.007202532142400742,0.012384451925754547,-0.033805470913648605,0.0031891651451587677,-0.002388928085565567,-0.02002335898578167,-0.02771240472793579,0.0316169448196888,0.029038075357675552,0.016552451997995377,0.03408035263419151,-0.01449313759803772,-0.0061686672270298,0.013522092252969742,-0.005900949239730835,-0.00700838677585125,-0.029520053416490555,0.009595043957233429,-0.021583115682005882,0.0012987926602363586,0.0348205603659153,-0.010993404313921928,-0.011256849393248558,0.02154688909649849,-0.013130472972989082,-0.003067050129175186,0.033347804099321365,-0.014641920104622841,-0.025550365447998047,-0.019987277686595917,-0.009901629760861397,-0.01694638468325138,-0.01853327825665474,0.014426589012145996,0.006069205701351166,-0.0114307701587677,-0.027746835723519325,-0.011244995519518852,-0.015072828158736229,-0.011622106656432152,-0.032218679785728455,0.00769389420747757,-0.02624012902379036,-0.027814257889986038,-0.029179757460951805,0.014906559139490128,-0.021500954404473305,-0.014741102233529091,0.0279943086206913,0.018963009119033813,0.0204782597720623,-0.033910948783159256,-0.025610707700252533,-0.013482537120580673,0.029503490775823593,0.003653585910797119,-0.026710614562034607,0.00022363662719726562,-0.027738243341445923,-0.0078249741345644,-0.009820537641644478,0.0309164859354496,0.011062026023864746,-0.006227539852261543,0.006033170968294144,-0.010309483855962753,0.014032155275344849,0.014127280563116074,0.009590931236743927,-0.013920605182647705,0.03046966716647148,-0.005156069993972778,-0.013904167339205742,0.022368360310792923,0.0291091687977314,0.03554141893982887,0.010580655187368393,-0.012174781411886215,0.018139000982046127,0.030641231685876846,-0.03502979129552841,-0.004424534738063812,-0.02435591071844101,0.006655707955360413,0.014770887792110443,-0.007378140464425087,-0.002987753599882126,0.016075387597084045,-0.006002489477396011,-0.029992125928401947,0.028576288372278214,-0.017975518479943275,-0.003923516720533371,0.003368798643350601,-0.0021463148295879364,-0.03359593078494072,0.01638571172952652,-0.016222555190324783,-0.018523557111620903,0.008532695472240448,-0.01863793097436428,-0.01650570146739483,-0.012033926323056221,-0.013417057693004608,-0.014915624633431435,-0.00963163934648037,0.009281277656555176,-0.028900641947984695,-0.02161715365946293,0.0005211234092712402,0.004966717213392258,0.019724730402231216,-0.02508728578686714,0.01139989122748375,0.02029963582754135,0.019830722361803055,-0.03326505422592163,-0.013628721237182617,-0.03069877251982689,-0.022600408643484116,0.019892245531082153,-0.005332823842763901,0.015168264508247375,-0.02096451260149479,0.0054271407425403595,-0.021602069959044456,0.017853286117315292,-0.015620678663253784,-0.008955683559179306,-0.030986834317445755,0.00011798366904258728,0.033910010010004044,0.017334934324026108,-0.019055034965276718,0.00048031285405158997,-0.003916017711162567,-0.028752651065587997,0.028003256767988205,0.0005757398903369904,0.00752132385969162,-0.01442246325314045,-0.016711397096514702,0.0058889128267765045,0.01320396363735199,0.00801064446568489,-0.01721232384443283,0.03467492386698723,-0.005257301032543182,-0.02187196910381317,-0.016704022884368896,0.035157885402441025,1.7210841178894043e-06,-0.00484800711274147,-0.014862921088933945,-0.009362336248159409,-0.030079592019319534,-0.028381552547216415,0.020903196185827255,0.030551765114068985,0.03408215567469597,-0.025783654302358627,0.019316546618938446,-0.022105950862169266,0.02130572497844696,0.02576979622244835,0.027638252824544907,0.02571611851453781,0.022341903299093246,0.0006951317191123962,0.016410086303949356,-0.012777533382177353,0.015551242977380753,-0.011478642001748085,-0.000599689781665802,-0.03108496032655239,-0.00933837890625,-0.018781177699565887,-0.012047171592712402,-0.022806663066148758,-0.032123010605573654,0.0023255906999111176,0.023177828639745712,0.03252676501870155,0.020841222256422043,-0.018512049689888954,-0.03532177954912186,0.01354692131280899,0.020011212676763535,-0.030661145225167274,0.012806646525859833,0.03019561991095543,0.0021634474396705627,-0.021516388282179832,0.02928129956126213,0.015250567346811295,0.023650042712688446,-0.024153053760528564,0.020783770829439163,-0.02439548820257187,0.03533908352255821,-0.015132134780287743,0.021520253270864487,0.007151484489440918,0.009464658796787262,-0.005476964637637138,0.01466912031173706,-0.014884710311889648,-0.0336635485291481,-0.013721538707613945,0.027983520179986954,-0.00940248928964138,0.011225659400224686,-0.013204514980316162,0.026791047304868698,0.0213746540248394,0.012607630342245102,-0.018255775794386864,-0.02918321080505848,0.0013446211814880371,-0.02095206454396248,0.02936406061053276,-0.034320563077926636,0.01595958322286606,0.035604070872068405,0.017886728048324585,0.012177813798189163,-0.03436238318681717,0.03435332700610161,-0.0061088427901268005,-0.033371731638908386,0.03525581583380699,-0.014533238485455513,-0.002526700496673584,0.032688554376363754,-0.02475716918706894,-0.025267500430345535,0.00580776110291481,-0.0047804974019527435,0.008226491510868073,-0.029953762888908386,0.0010680928826332092,-0.01588427647948265,-0.017557460814714432,-0.03270132094621658,0.018936369568109512,0.00687987357378006,-0.03019440360367298,0.0283411405980587,0.01077217236161232,0.006627257913351059,-0.02096915803849697,0.005385875701904297,0.03441214933991432,0.024495873600244522,-0.02781679481267929,0.032600756734609604,0.0027682073414325714,0.01717732846736908,0.02773844078183174,0.03044675663113594,-0.02784053049981594,0.03127371147274971,-0.024256248027086258,0.0026773586869239807,-0.02495584450662136,-0.007829759269952774,-0.0016229525208473206,-0.004272691905498505,-0.00564199686050415,0.002816803753376007,0.035229239612817764,0.020750414580106735,0.01998107135295868,0.01429455354809761,0.027649324387311935,-0.0016481801867485046,0.0028397217392921448,0.007349897176027298,-0.031147519126534462,-0.02876988984644413,0.004378620535135269,-0.01397322304546833,-0.0006553493440151215,-0.008194956928491592,0.005559384822845459,0.023236270993947983,-0.011844353750348091,0.02860216423869133,0.02819863334298134,-0.02741064876317978,-0.02757950872182846,-0.028895532712340355,-0.019572151824831963,-0.013902723789215088,-0.0026881955564022064,-0.008685436099767685,-0.018044590950012207,-0.011346200481057167,-0.01291944831609726,0.0350370816886425,-0.013236744329333305,-0.025571461766958237,0.01484634354710579,-0.002062913030385971,0.0273415707051754,0.022315453737974167,0.03281174227595329,-0.02615569904446602,0.022959407418966293,0.02997281774878502,-0.017636841163039207,0.03282785788178444,0.026772964745759964,0.0003911145031452179,0.017219729721546173,-0.01248648390173912,-0.031149422749876976,0.009027861058712006,0.010647330433130264,-0.02334139309823513,0.01732141524553299,-0.030507953837513924,0.03073657676577568,0.034585367888212204,0.009723514318466187,-0.022408172488212585,0.01738111674785614,0.006086278706789017,0.009711384773254395,0.01173761859536171,0.027191270142793655,-0.01535128429532051,-0.00803375244140625,0.009739495813846588,0.003891468048095703,0.028799202293157578,-0.018758518621325493,-0.0013005957007408142,0.0066733285784721375,-0.009485321119427681,0.024347025901079178,0.003906484693288803,-0.033008214086294174,-0.0038691386580467224,-0.01619846187531948,0.003470398485660553,-0.004150569438934326,-0.035426221787929535,-0.006508048623800278,-0.003420688211917877,-0.01053137518465519,0.03281359001994133,-0.007792826741933823,0.022943470627069473,0.008847061544656754,-0.0301476139575243,0.00839236006140709,0.029597703367471695,-0.023360738530755043,-0.023084819316864014,0.03495889529585838,0.028696786612272263,-0.019924785941839218,0.02149089425802231,-0.0045690033584833145,-0.03521176427602768,0.002683337777853012,0.011539071798324585,-0.010712888091802597,0.01242440938949585,-0.030539318919181824,0.024750571697950363,0.03044765815138817,0.019695241004228592,0.006053261458873749,0.011762462556362152,-0.025840993970632553,-0.008924050256609917,-0.003409557044506073,-0.019874505698680878,-0.026379287242889404,0.02402205765247345,0.02423733100295067,-0.03243529424071312,0.011364713311195374,0.014528650790452957,0.033927444368600845,0.02066263183951378,0.03283345326781273,-0.011692490428686142,0.025013800710439682,0.02905004844069481,-0.033726003021001816,-0.028668098151683807,0.00722876563668251,0.019501350820064545,-0.017743324860930443,0.003933373838663101,-5.184859037399292e-05,0.009039558470249176,-0.019191056489944458,0.020144250243902206,0.023750334978103638,-0.024780653417110443,0.00034597888588905334,9.909272193908691e-05,0.011468417942523956,0.03327087685465813,0.010473694652318954,-0.008115069940686226,0.03207617625594139,-0.013590460643172264,-0.010370420292019844,0.0024384036660194397,-0.027196744456887245,0.0038863345980644226,-0.02423126995563507,0.0036721639335155487,0.0034216977655887604,0.004943598061800003,-0.03011769987642765,-0.03392086923122406,0.016432762145996094,0.030628424137830734,-0.03169187158346176,0.013228364288806915,-0.026290055364370346,0.002238977700471878,0.03322705999016762,0.027093540877103806,-0.026112135499715805,0.022091854363679886,0.01865418627858162,-5.4780393838882446e-05,0.03459738567471504,-0.014184828847646713,-0.008311280980706215,-0.018050504848361015,0.005139172077178955,0.009456668049097061,0.002845723181962967,-0.02009418234229088,-0.016077375039458275,0.012148305773735046,-0.03131522983312607,-0.005561947822570801,-0.0007911287248134613,-0.014470139518380165,0.012997075915336609,0.0023019202053546906,0.025073736906051636,-0.0031718388199806213,-0.022540658712387085,0.02523399516940117,0.004987455904483795,-0.010228507220745087,-0.023539386689662933,0.008371032774448395,-0.03406259045004845,0.009406350553035736,0.017658740282058716,-0.03132858872413635,-0.023381158709526062,-0.025675922632217407,0.030018094927072525,0.03036145493388176,0.002235744148492813,0.033528778702020645,-0.011939428746700287,-0.034672223031520844,0.012474820017814636,0.012652449309825897,0.03501365706324577,-1.0337680578231812e-05,0.02737129107117653,0.02189156413078308,0.025848887860774994,-0.03544043377041817,0.02940921112895012,-0.03044474683701992,0.032018255442380905,-0.0014800205826759338,-0.031650613993406296,0.009931884706020355,-0.007269527763128281,-0.0320783369243145,-0.012947794049978256,0.003682326525449753,0.02781594917178154,-0.010979631915688515,0.021213140338659286,0.004472445696592331,0.0012038536369800568,0.006833750754594803,-0.023438170552253723,-0.029685651883482933,-0.011221842840313911,-0.03328050300478935,-0.01665537804365158,0.0016430653631687164,-0.02352176047861576,-0.014814144000411034,-0.0064173731952905655,-0.004114408046007156,-0.019714808091521263,0.0017161071300506592,-0.005012873560190201,0.010214127600193024,0.0016131214797496796,-0.017834633588790894,-0.012295855209231377,-0.0004116334021091461,-0.022285189479589462,0.0027958936989307404,-0.0025216341018676758,0.013856377452611923,0.008452348411083221,0.026727985590696335,-0.0011773370206356049,-0.0263894721865654,0.015964604914188385,-0.024137068539857864,-0.004909012466669083,-0.011564383283257484,-0.013551589101552963,-0.013213710859417915,0.032818589359521866,0.02044488862156868,0.009897764772176743,0.03353416547179222,-0.03236507251858711,0.0057631246745586395,0.022863443940877914,0.023724641650915146,-0.02842334844172001,0.012710340321063995,-0.02034592628479004,-0.001395493745803833,-0.007452510297298431,-0.029820162802934647,-0.03406837210059166,-0.0234963558614254,0.01620608940720558,0.01633698120713234,-0.03106299228966236,-0.013412224128842354,0.0005833730101585388,-0.03087794966995716,0.020123377442359924,0.03234758600592613,0.006316490471363068,-0.0265362448990345,0.008328083902597427,0.012964773923158646,0.028280112892389297,-0.01900249719619751,-0.03199677914381027,0.01569109410047531,0.0022234395146369934,-0.011636657640337944,-0.014965083450078964,-0.018414851278066635,0.02891061082482338,-0.0061621107161045074,0.02575739473104477,0.031880345195531845,0.004524145275354385,0.007607772946357727,-0.0024323128163814545,0.024529121816158295,-0.03218171000480652,0.014202967286109924,-0.005818886682391167,0.016307726502418518,-0.0001590736210346222,-0.013223789632320404,-0.0038553550839424133,0.01928545907139778,-0.02480464056134224,-0.02257497049868107,-0.007999870926141739,-0.012954449281096458,0.01402997225522995,0.024034637957811356,-0.003824949264526367,0.033770497888326645,-0.014922142028808594,-0.02004140615463257,-0.015989074483513832,-0.02460615709424019,-0.02503335103392601,-0.03182198479771614,-0.03165283054113388,0.009321380406618118,0.021780502051115036,0.03353026136755943,0.030421335250139236,-0.002056919038295746,0.006930235773324966,-0.021368563175201416,0.013804323971271515,-0.03424432501196861,0.0168454609811306,0.006550554186105728,0.010975152254104614,0.013076726347208023,-0.016396600753068924,0.030646655708551407,0.017044730484485626,0.023460526019334793,0.004717089235782623,0.02242809161543846,0.024035751819610596,0.01618696004152298,0.02720602974295616,-0.006477782502770424,0.023483436554670334,0.008228540420532227,0.02148914337158203,0.03478566184639931,0.00808703899383545,-0.01325596310198307,-0.0035534314811229706,0.010054588317871094,0.006021760404109955,-0.009756075218319893,0.02798280492424965,0.021457403898239136,-0.022184062749147415,-0.0029100514948368073,-0.003428347408771515,-0.02238324284553528,0.005209106951951981,-0.010964032262563705,-0.018437910825014114,-0.011483823880553246,-0.012733876705169678,0.03416571393609047,0.013698998838663101,0.03514690324664116,0.009792700409889221,0.008086830377578735,0.014681912958621979,0.006129734218120575,-0.028027553111314774,-0.021119769662618637,-0.008652806282043457,0.0005369000136852264,0.01345408707857132,0.013751722872257233,0.028332624584436417,0.007270455360412598,-0.012189043685793877,-0.02685808390378952,-0.026157524436712265,-0.0213334821164608,0.010771557688713074,0.019295435398817062,0.031246881932020187,-0.011296847835183144,-0.002817247062921524,-0.010605838149785995,-0.0001305006444454193,0.011464335024356842,-0.0007846951484680176,0.001653384417295456,0.004524540156126022,0.013300653547048569,-0.010835763067007065,-0.021296344697475433,0.00842588022351265,-0.004228770732879639,-0.01617957092821598,0.014998678117990494,0.0003238953649997711,-0.005195166915655136,-0.017288707196712494,-0.0046987831592559814,-0.030368754640221596,0.00812465324997902,0.0005359537899494171,0.021672729402780533,0.002306085079908371,0.0028554387390613556,0.009729035198688507,0.027176346629858017,-0.016877060756087303,0.0213216133415699,0.008734341710805893,-0.023825600743293762,0.012435246258974075,-0.02141905389726162,-0.011242173612117767,-0.017023887485265732,-0.02429693564772606,0.028127554804086685,-0.031922176480293274,0.017857681959867477,-0.032143283635377884,-0.004346642643213272,0.0021300800144672394,0.025389663875102997,-0.012924769893288612,0.01027955487370491,0.005532354116439819,0.02101374790072441,0.002123270183801651,0.01337302103638649,-0.02157467231154442,-0.02481825090944767,0.031824205070734024,-0.026023823767900467,-0.006079988554120064,-0.004317145794630051,0.03492429479956627,-0.007718341425061226,-0.02718944288790226,-0.009053533896803856,0.018422182649374008,0.014153219759464264,0.029546145349740982,-0.007311318069696426,0.01682305335998535,-0.0336085744202137,0.013819277286529541,0.01640941947698593,0.023038823157548904,-0.02048008143901825,-0.009534941986203194,0.0086403489112854,-0.02537909708917141,-0.028410036116838455,-0.0343586727976799,0.001993674784898758,0.02217813953757286,0.009173568338155746,0.002177320420742035,0.012443780899047852,-0.022443005815148354,0.0037652142345905304,-0.008872270584106445,-0.01768370345234871,0.03079904243350029,-0.027630453929305077,0.0052338652312755585,-0.031382590532302856,-0.0012116692960262299,-0.015870073810219765,0.011755265295505524,-0.020054928958415985,0.022858556360006332,-0.028980962932109833,0.021451275795698166,-0.026827838271856308,0.01912805065512657,-0.015038086101412773,-8.320063352584839e-05,-0.006517980247735977,0.02317964658141136,0.01170455664396286,-0.03147158771753311,0.003283590078353882,-0.024637943133711815,0.026698622852563858,0.005867846310138702,-0.009185029193758965,-0.018220335245132446,0.01236175000667572,-0.021389182657003403,0.01693793758749962,0.01948840543627739,0.0219215489923954,0.009329922497272491,-0.03126317262649536,0.025689896196126938,-0.011079410091042519,-0.010558422654867172,-0.0038371048867702484,0.026111960411071777,0.027461666613817215,0.005514714866876602,0.01704113930463791,-0.033285606652498245,8.436664938926697e-05,-0.03159584477543831,0.012155342847108841,-0.025444623082876205,-0.01272873766720295,0.024965401738882065,0.03413200005888939,-0.02144216001033783,-0.01982181891798973,0.004423074424266815,0.014039475470781326,-0.0058168694376945496,-0.011153226718306541,-0.023458704352378845,0.015245560556650162,0.03499149903655052,-0.017288541421294212,0.016845133155584335,0.017442665994167328,0.02870703861117363,-0.004066206514835358,0.0011249221861362457,0.026239246129989624,0.0225754976272583,0.035275254398584366,-0.010234646499156952,0.014131665229797363,0.0249384343624115,-0.02424342930316925,0.007094956934452057,-0.007991168648004532,0.02295801043510437,-0.01604025810956955,0.002504948526620865,0.02136823907494545,-0.032718464732170105,-0.030155792832374573,-0.01829228736460209,0.02290775626897812,0.023947421461343765,-0.024391788989305496,0.0068102627992630005,-0.018924318253993988,-0.01657688245177269,0.030800621956586838,0.01725032553076744,-0.00976724736392498,0.0052571967244148254,0.006919890642166138,0.008365750312805176,-0.012224240228533745,-0.02103162743151188,0.02364513650536537,0.004799019545316696,0.014948204159736633,-0.013526061549782753,0.01729891076683998,0.025991633534431458,0.021720483899116516,0.009710565209388733,0.035138677805662155,-7.810816168785095e-05,0.007603466510772705,0.033933211117982864,0.034710612148046494,-0.015079289674758911,0.03217155113816261,0.013180717825889587,-0.003997772932052612,0.031183790415525436,-0.01850104331970215,0.023205306380987167,0.03539086505770683,-0.024632221087813377,-0.021074747666716576,-0.035389792174100876,-0.0064272284507751465,-0.03243584558367729,-0.011961499229073524,0.010842684656381607,0.025245632976293564,0.01989411562681198,0.01982431858778,0.014816567301750183,-0.022151190787553787,-0.02835696190595627,0.00148048996925354,0.03391367569565773,0.002010919153690338,-0.003071781247854233,-0.02424062229692936,-0.017708510160446167,-0.027530845254659653,0.028595302253961563,-0.005818916484713554,-0.03155031055212021,0.003831237554550171,0.0025917217135429382,-0.004412449896335602,0.012784425169229507,0.019206400960683823,-0.03358607739210129,-0.027360418811440468,-0.0017157122492790222,-0.0331120640039444,-0.03244142234325409,0.03153252229094505,-0.002716410905122757,-0.017656799405813217,-0.01225060224533081,-0.027882948517799377,0.02787020429968834,-0.007744245231151581,-0.020079929381608963,-0.027086174115538597,0.020874645560979843,-0.004936836659908295,-0.0037520453333854675,-0.009308330714702606,-0.01724010333418846,0.0063532255589962006,0.027477513998746872,-0.020699292421340942,0.0017111673951148987,-0.027161190286278725,-0.01674632541835308,0.031348925083875656,0.0003744661808013916,0.03440425172448158,-0.006257291883230209,-0.019465863704681396,-0.021338868886232376,0.03165409341454506,-0.027463819831609726,0.018742654472589493,0.008877936750650406,0.010539546608924866,0.020151428878307343,-0.009343676269054413,0.02209870144724846,-0.028454378247261047,-0.012565761804580688,0.02614433690905571,0.010599277913570404,-0.004756161943078041,-0.00834038108587265,-0.021807663142681122,0.021717563271522522,-0.0011357180774211884,-0.0012083537876605988,0.008446194231510162,0.02635529637336731,-0.01822083443403244,-0.012299908325076103,0.024201110005378723,0.02017044648528099,-0.01756916008889675,-0.035330720245838165,0.006625406444072723,0.018781930208206177,0.008530613034963608,0.025332655757665634,-0.028338361531496048,0.0180102176964283,-0.022202834486961365,0.020100239664316177,0.026561226695775986,0.011311288923025131,0.02889552339911461,-0.023541128262877464,-0.03194199502468109,-0.03433947265148163,0.02242255210876465,0.012511070817708969,-0.026152387261390686,0.01729574427008629,0.03258615359663963,-0.035217273980379105,0.02590789645910263,0.005477603524923325,0.0033221766352653503,0.03213546797633171,0.03234250470995903,0.015048258006572723,0.028219107538461685,0.01485801488161087,0.005819343030452728,-0.031393252313137054,0.006670810282230377,-0.025408796966075897,0.010995224118232727,0.006301213055849075,0.0008023455739021301,-0.02441881038248539,-0.021649902686476707,0.02639777585864067,0.017393536865711212,0.018829993903636932,-0.010642031207680702,-0.006149867549538612,-0.009152775630354881,0.02456047758460045,-0.015417423099279404,0.022495172917842865,0.0246247798204422,-0.03266271576285362,0.0002180933952331543,-0.006801912561058998,-0.019743656739592552,0.015418484807014465,-0.004339106380939484,0.031268153339624405,-0.02235371433198452,0.01659398153424263,-0.030492596328258514,-0.017900774255394936,0.002436179667711258,0.0282176174223423,0.01881140097975731,-0.029324481263756752,0.003955908119678497,-0.021053209900856018,0.0015474893152713776,-0.029752617701888084,-0.010477624833583832,0.024495232850313187,-0.03276915103197098,-0.03405081108212471,0.006505154073238373,0.004895869642496109,-0.006531625986099243,0.031186144798994064,-0.021503176540136337,-0.021681437268853188,-0.026695575565099716,-0.006647232919931412,-0.0091144610196352,0.022098105400800705,-0.00200532004237175,0.01140548661351204,-0.014841310679912567,0.02897116169333458,0.030107814818620682,-0.0319846086204052,-0.009178558364510536,-0.030303480103611946,0.015172388404607773,-0.031202973797917366,-0.016886137425899506,0.0356847308576107,-0.03410425782203674,0.02635016292333603,0.0030171088874340057,0.028558384627103806,-0.018124619498848915,0.023458164185285568,0.004309061914682388,0.00274687260389328,0.024376150220632553,-0.033947400748729706,-0.028766117990016937,0.03449155017733574,-0.021446306258440018,-0.025743132457137108,-0.0017462372779846191,-0.011432230472564697,-0.004886137321591377,-0.02392805553972721,0.012886390089988708,-0.03073148801922798,0.00289260596036911,0.02084069699048996,0.006862003356218338,0.004745353013277054,0.005223717540502548,-0.010462518781423569,-0.006803508847951889,-0.015060476958751678,-0.024126019328832626,-0.01890914887189865,0.03530573472380638,-0.005977017804980278,0.012510571628808975,0.02469836175441742,-0.002789922058582306,-0.0192133616656065,-0.02419782243669033,-0.013157261535525322,0.012747731059789658,-0.030077092349529266,-0.00436059758067131,0.013585235923528671,0.029137682169675827,0.010747518390417099,0.007063094526529312,0.0244496688246727,0.016503140330314636,0.012082632631063461,-0.011073091998696327,-0.02863924577832222,-0.007714360952377319,-0.0064772795885801315,0.0026227571070194244,-0.003927864134311676,0.014438875019550323,0.02373393252491951,-0.014479296281933784,-0.03388788178563118,-0.018323559314012527,-0.01708844304084778,0.0202442929148674,-0.023037273436784744,-0.0033591799437999725,-0.007569253444671631,-0.02167615294456482,0.016188744455575943,-0.014876984059810638,-0.0018475763499736786,-0.025110170245170593,-0.0036021359264850616,0.005074493587017059,-0.0014533139765262604,-0.01334456168115139,0.010610129684209824,-0.0092534851282835,-0.019799960777163506,-0.026336878538131714,-0.007565341889858246,-0.03373851627111435,0.029643569141626358,-0.017061706632375717,-0.014800650998950005,0.0033013932406902313,0.00925832986831665,-0.0033675841987133026,0.02450081706047058,-0.020819630473852158,0.01279931515455246,-8.05482268333435e-05,-0.02905254065990448,-0.013831960037350655,0.009088829159736633,0.006822921335697174,0.025969121605157852,0.023892607539892197,-0.019479386508464813,-0.015251053497195244,-0.007572906091809273,-0.02558644860982895,-0.009642494842410088,-0.029225461184978485,0.013583648949861526,0.025269977748394012,0.002827730029821396,-0.02556716650724411,-0.02704671584069729,-0.0139035414904356,0.010387621819972992,0.0008711442351341248,0.0064936429262161255,0.033660050481557846,0.016587216407060623,0.0076793767511844635,-0.007225781679153442,0.01689460501074791,0.013065733015537262,-0.03214650973677635,-0.02109675109386444,0.0011987760663032532,0.013551510870456696,0.017375104129314423,-0.02125995233654976,-0.03543265536427498,-0.0018604137003421783,-0.004082761704921722,0.010363571345806122,-0.009821658954024315,0.027304384857416153,0.0023830048739910126,0.02608024701476097,-0.024868369102478027,0.01428699865937233,0.004255574196577072,-0.017862439155578613,0.0177052803337574,-0.03514355048537254,0.028873827308416367,0.0028781481087207794,0.003448307514190674,0.016515914350748062,0.0029647275805473328,0.015308983623981476,0.02272193506360054,-0.027873516082763672,0.023627158254384995,-0.0053478144109249115,-0.008305324241518974,0.007188625633716583,0.027933988720178604,-0.019414830952882767,-0.02406897023320198,0.022164545953273773,-0.016773855313658714,0.011498216539621353,-0.005261646583676338,0.00983046367764473,0.02725410833954811,-0.018099963665008545,-0.017330843955278397,0.017522171139717102,0.0019554458558559418,-0.0039306506514549255,-0.03137100860476494,0.030259225517511368,-0.0013525299727916718,-0.006578121334314346,-0.01466035470366478,-0.007047794759273529,0.017358366400003433,-0.0008208341896533966,0.030543167144060135,-0.0020619556307792664,-0.005123492330312729,0.020158987492322922,-0.0009241290390491486,-0.007128320634365082,0.011936664581298828,0.02816539630293846,0.008912481367588043,0.02486850693821907,0.023144226521253586,0.010099921375513077,0.012417450547218323,0.011524435132741928,0.0037045255303382874,0.030383441597223282,0.03296930715441704,0.012713879346847534,-0.001783519983291626,0.03202122077345848,-0.027797162532806396,0.02624228224158287,0.018922343850135803,0.022933434695005417,-0.002744130790233612,-0.026646355167031288,0.02547638863325119,-0.015616273507475853,0.009396877139806747,0.020233754068613052,-0.03337591513991356,0.0023701414465904236,-0.012686656787991524,0.02534840628504753,-0.022739339619874954,0.021684635430574417,0.022270355373620987,0.019704103469848633,0.03428615257143974,0.005408968776464462,-0.032370757311582565,0.025495175272226334,0.003269527107477188,0.000708751380443573,-0.03402104601264,-0.008027009665966034,-0.01733456365764141,0.034978967159986496,0.025429602712392807,0.026642438024282455,0.024458453059196472,-0.022138353437185287,-0.015338201075792313,-0.013976795598864555,-0.0143172238022089,0.02780115231871605,0.012134529650211334,0.02861979231238365,-0.0016706772148609161,-0.03183668479323387,-0.010361544787883759,0.02509981021285057,0.021743055433034897,0.011056125164031982,-0.010475989431142807,-0.03333468362689018,-0.019190240651369095,0.018620729446411133,-0.014405634254217148,0.01708352193236351,0.009751468896865845,-0.013717405498027802,0.021752797067165375,-0.011476164683699608,-0.001186523586511612,-0.013604037463665009,-0.03387755900621414,0.005758505314588547,0.010320331901311874,-0.017981478944420815,0.021908815950155258,-0.03203769773244858,-0.034427739679813385,-0.022058892995119095,-0.012343032285571098,-0.0039663612842559814,-0.006901707500219345,0.016299590468406677,-0.031343765556812286,0.005258839577436447,0.0006184875965118408,0.00943322479724884,0.03550286218523979,0.021980304270982742,-0.019775165244936943,-0.02926616370677948,-0.008646462112665176,-0.01791524887084961,0.012475185096263885,0.0003273896872997284,0.028725843876600266,0.014028791338205338,-0.006566796451807022,0.0012274980545043945,0.008553072810173035,-0.004431687295436859,0.028819095343351364,-0.02792501077055931,0.017407353967428207,-0.022765854373574257,-0.03128862380981445,-0.007332023233175278,0.017403747886419296,0.02523435652256012,0.008962232619524002,-0.0030867494642734528,-0.002002120018005371,-0.014477904886007309,-0.0032049082219600677,-0.002467639744281769,0.030391525477170944,0.020901579409837723,-0.028579428791999817,0.0001477375626564026,-0.021966781467199326,-0.00566931813955307,-0.028384575620293617,0.009284324944019318,-0.02575278840959072,0.03525789454579353,0.026971522718667984,-0.024584248661994934,-0.03362371399998665,0.0013934895396232605,-0.00996970385313034,0.010484524071216583,-0.024175504222512245,0.014619328081607819,-0.030848193913698196,-0.018848931416869164,-0.01877506449818611,0.01728183403611183,-0.000935044139623642,-0.034322451800107956,-0.020397145301103592,-0.016527747735381126,-0.033136773854494095,0.004573103040456772,0.012726355344057083,-0.006552772596478462,-0.014212315902113914,-0.00021659210324287415,-0.02836720645427704,-0.021746482700109482,-0.0008145086467266083,0.03172776475548744,-0.010982440784573555,0.017702125012874603,-0.014055371284484863,-0.009507065638899803,-0.033998019993305206,0.02958875522017479,0.0347759835422039,-0.0007501170039176941,0.02269177883863449,0.02921220287680626,0.0177399143576622,0.01839354634284973,-0.033999666571617126,-0.03355966880917549,-0.027412155643105507,0.011170916259288788,-0.03089202381670475,-0.027262309566140175,-0.017310816794633865,-0.032917335629463196,4.8123300075531006e-05,0.0051524341106414795,-0.020900016650557518,0.02338447794318199,-0.013558745384216309,-0.010054538026452065,0.027209829539060593,0.03066256269812584,-0.004097159951925278,-0.025638505816459656,-0.01791675202548504,0.004547830671072006,0.02093544602394104,0.01778016984462738,-0.01577080227434635,-0.0337630957365036,-0.03125525265932083,-0.011362724006175995,0.00044800713658332825,-0.016041986644268036,-0.028239473700523376,0.003763847053050995,-0.028347885236144066,-0.027425864711403847,-0.029033785685896873,-0.009677624329924583,0.03154493495821953,0.01396140456199646,-0.0042346082627773285,0.007350403815507889,0.014221753925085068,0.00020807981491088867,-0.028806228190660477,-0.02200402319431305,-0.024262599647045135,-0.000906866043806076,-0.03269292041659355,-0.0064936112612485886,-0.013059714809060097,0.03504893556237221,0.02902943268418312,0.020744774490594864,0.0020029358565807343,-0.011563314124941826,0.009109660983085632,-0.024676060304045677,-0.015232287347316742,-0.007174478843808174,-0.008391240611672401,-0.03383222222328186,0.014197535812854767,0.029410075396299362,-0.01969905011355877,0.009627368301153183,-0.00414193794131279,-0.0013025887310504913,0.002081785351037979,0.03094938024878502,0.004785377532243729,-0.022595610469579697,-0.012846913188695908,0.01744740456342697,0.011144805699586868,0.00069412961602211,-0.004713462665677071,-0.013895601034164429,-0.012675970792770386,-0.018838785588741302,0.005852203816175461,0.010030075907707214,0.02734803780913353,-0.008068336173892021,0.002556741237640381,0.023081768304109573,0.015535380691289902,0.004588846117258072,0.010974235832691193,0.0018538013100624084,-0.030635422095656395,0.0013768263161182404,-0.0078063905239105225,0.032228995114564896,0.03223670646548271,0.007085379213094711,0.03192153945565224,-0.018393535166978836,0.031041916459798813,0.030749473720788956,-0.0013650357723236084,-0.028661051765084267,-0.011524869129061699,-0.009550975635647774,0.0005899295210838318,-0.03238040208816528,0.006618767976760864,-0.014853274449706078,-0.009144328534603119,-0.01844615302979946,-0.007540497928857803,-0.03316875547170639,-0.018934570252895355,0.0032901763916015625,0.023402713239192963,0.03245527669787407,-0.02701627090573311,0.01499718427658081,-0.020131994038820267,-0.027612751349806786,-0.0015726909041404724,-0.020487383008003235,-0.030758799985051155,-0.0333763025701046,-0.023905299603939056,0.029347706586122513,0.01991814374923706,-0.014137396588921547,-0.023904312402009964,-0.027472922578454018,-0.021090053021907806,-0.01469636894762516,0.02144961804151535,0.011687729507684708,-0.013763291761279106,0.024586837738752365,-0.022186901420354843,-0.029095999896526337,0.0077946484088897705,-0.019692890346050262,0.010159943252801895,0.0302584208548069,-0.016889479011297226,-0.024921856820583344,0.013442862778902054,-0.032255254685878754,0.0318634919822216,-0.0168662928044796,0.017266422510147095,-0.028398992493748665,-0.024173865094780922,0.003934092819690704,0.012693032622337341,0.027692686766386032,0.029869142919778824,-0.002053983509540558,-0.004591686651110649,0.005903635174036026,-0.00829610601067543,0.0012157447636127472,-0.033823154866695404,-0.029318125918507576,0.024473659694194794,-0.02086988091468811,0.028124485164880753,0.003919418901205063,0.008699461817741394,0.03245991840958595,-0.01986393891274929,-0.005637781694531441,0.00632748007774353,0.012201491743326187,-0.03475765511393547,0.01269352063536644,-0.021061643958091736,0.004691071808338165,0.02416248992085457,-0.003557685762643814,-0.0011298134922981262,-0.0026684068143367767,0.029802951961755753,0.02029748260974884,0.0060060471296310425,-0.021493401378393173,-0.019394177943468094,0.028448384255170822,0.02569359540939331,0.02067892998456955,-0.0278470478951931,0.027814026921987534,-0.0034139975905418396,0.026312753558158875,0.031019624322652817,0.003914680331945419,-0.014861371368169785,0.03359467163681984,-0.018611431121826172,0.023336242884397507,-0.03424607589840889,-0.01123260147869587,-0.03113766759634018,-0.016020579263567924,0.015164967626333237,-0.025590289384126663,-0.030885860323905945,0.025536976754665375,0.019065018743276596,-0.00039054080843925476,-0.02517717331647873,-0.009462015703320503,-0.011563591659069061,0.022056803107261658,-0.011681662872433662,-0.010286271572113037,-0.025316402316093445,-0.016820989549160004,0.019337456673383713,0.023010198026895523,0.005188830196857452,-0.013399934396147728,0.034303244203329086,0.007049284875392914,-0.0137855876237154,-0.012378470972180367,-0.00499824620783329,0.016932059079408646,0.013063129037618637,0.02589144930243492,-0.0016091763973236084,0.02953903004527092,-0.014506690204143524,-0.016448328271508217,-0.013189192861318588,-0.03350742906332016,-0.023444287478923798,-0.03231696039438248,-0.0021106302738189697,0.00033669546246528625,-0.009269362315535545,-0.02440655790269375,0.032403167337179184,-0.01183357834815979,0.017019744962453842,0.024871792644262314,-0.023477032780647278,-0.004465112462639809,0.020641688257455826,0.03461996838450432,-0.004505753517150879,0.025879401713609695,-0.028030937537550926,-0.023204978555440903,0.029369112104177475,-0.0033814124763011932,0.03528295084834099,0.002597041428089142,-0.014811038970947266,0.033918414264917374,0.031231556087732315,0.0033144988119602203,-0.021650191396474838,-0.0015463195741176605,-0.01717560365796089,0.026024330407381058,0.0016544125974178314,0.007518623024225235,0.02165946364402771,0.011830054223537445,-0.022295229136943817,0.029668722301721573,0.02194087952375412,-0.022047724574804306,0.027003679424524307,0.010132268071174622,-0.007030317559838295,-0.025541549548506737,-0.0059258174151182175,-0.035015836358070374,0.020384322851896286,0.025866199284791946,-0.01028207503259182,0.0331089161336422,-0.013224691152572632,0.006116017699241638,-0.02488907426595688,-0.00150994211435318,0.014436781406402588,0.01538337767124176,-0.0011975876986980438,-0.0180093701928854,0.02496376633644104,0.02364521101117134,0.005731444805860519,-0.016424141824245453,0.007572341710329056,9.549781680107117e-05,0.032628681510686874,0.005292598158121109,0.002754621207714081,0.0024414099752902985,0.019000325351953506,-0.00044127926230430603,0.03061230108141899,0.01860678195953369,-0.026986680924892426,-4.0978193283081055e-07,-0.030314531177282333,-0.027421735227108,0.00693904235959053,0.008025668561458588,-0.0031254366040229797,0.03394508734345436,-0.01918613538146019,-0.014967348426580429,-0.005719486624002457,0.00021653994917869568,-0.0030250847339630127,0.032156746834516525,-0.0150837991386652,-0.018681250512599945,0.0030696429312229156,0.02682436630129814,0.008476987481117249,0.019240450114011765,0.006913758814334869,0.030438873916864395,0.021450843662023544,0.02555602788925171,-0.004810359328985214,-0.029567698016762733,-0.016941582784056664,0.01216672733426094,0.025055240839719772,-0.01395372860133648,0.02955068275332451,0.00513308122754097,0.0001418590545654297,0.0013923011720180511,-0.006309734657406807,0.033435311168432236,0.0015512481331825256,0.02187531813979149,-0.03014335222542286,-0.018400751054286957,0.004015594720840454,0.028517846018075943,0.017003118991851807,0.00680212676525116,-0.03528541326522827,0.0006714127957820892,-0.023575060069561005,-0.030495427548885345,0.0048836953938007355,-0.02259662002325058,0.032415684312582016,-0.01941220834851265,0.011509574949741364,0.02096295729279518,-0.02775847166776657,0.018277857452630997,-0.004782004281878471,0.01850581169128418,0.03456195816397667,-0.015220195055007935,-0.015467997640371323,0.028376761823892593,0.003971446305513382,-0.0035618841648101807,0.02709529921412468,-0.01725514605641365,-0.0017634332180023193,0.024531278759241104,0.013957533985376358,-0.023100530728697777,0.009282734245061874,-0.027229884639382362,-0.019395479932427406,0.022964708507061005,-0.009518295526504517,-0.018191326409578323,0.0025315098464488983,0.008727513253688812,-0.022200603038072586,-0.024084407836198807,-0.03458818420767784,0.00922798365354538,-0.023043910041451454,0.002721726894378662,-0.007987793534994125,-0.023352142423391342,-0.011396387591958046,-0.027453213930130005,-0.01890474557876587,-0.0011132583022117615,-0.030532684177160263,-0.03132262080907822,0.026752162724733353,0.0033606477081775665,-0.0157947801053524,-0.001187451183795929,0.026484470814466476,-0.029795201495289803,-0.018935127183794975,-0.02582644671201706,-0.0025964640080928802,-0.0012290291488170624,-0.027832351624965668,0.024788711220026016,-0.027425706386566162,0.03334413096308708,-0.024584610015153885,-0.004894481971859932,0.006678104400634766,-0.015874195843935013,0.032844360917806625,-0.024622654542326927,-0.001979585736989975,-0.02622360922396183,0.00991395115852356,0.03044954314827919,0.033128079026937485,0.004239775240421295,-0.017880190163850784,0.03470874950289726,0.0026653707027435303,0.024163465946912766,-0.018550623208284378,-0.016574762761592865,-0.029647620394825935,0.03286164626479149,0.005924437195062637,-0.025649622082710266,0.003067459911108017,-0.015318041667342186,0.001784157007932663,0.011854395270347595,-0.01772267185151577,0.006232120096683502,-0.022549346089363098,0.006881989538669586,-0.034483443945646286,0.005691122263669968,0.035482827574014664,0.03289688006043434,0.013027898967266083,0.026279624551534653,0.034723494201898575,0.01012033224105835,0.011911362409591675,0.00464407354593277,0.03161891922354698,0.03068002685904503,-0.016795014962553978,-0.0014682002365589142,-0.01799440011382103,0.01281537115573883,-0.034606851637363434,0.0126381516456604,-0.009801728650927544,0.012951858341693878,0.011146653443574905,-0.017772100865840912,0.018528953194618225,0.01516607403755188,-0.030358601361513138,0.03563399985432625,0.030741188675165176,0.02222079411149025,-0.0036249980330467224,0.012653134763240814,-0.01932198368012905,-0.012135684490203857,0.016855664551258087,0.01589885726571083,0.01414233073592186,-0.034062065184116364,0.02959568426012993,-0.014917386695742607,0.030907724052667618,0.029426824301481247,0.013237528502941132,0.035581786185503006,0.020507868379354477,0.020945921540260315,-0.012127578258514404,0.03312448039650917,0.009360529482364655,0.021101277321577072,-0.008075280115008354,0.025865033268928528,0.03168221935629845,-0.027366120368242264,0.029278721660375595,-0.023603200912475586,-0.024588335305452347,-0.029845915734767914,0.010319992899894714,-0.0268152616918087,-0.013444066047668457,-0.017953064292669296,0.009545192122459412,-0.03506289795041084,-0.016372907906770706,0.0002612695097923279,0.003207217901945114,-0.016129443421959877,0.012795135378837585,-0.02356264553964138,-0.030246064066886902,-0.005077319219708443,-0.019308870658278465,0.02251189947128296,-0.024411385878920555,-0.002998296171426773,0.01483406126499176,-0.0312763936817646,0.027647141367197037,-0.016227684915065765,-0.009718440473079681,-0.021846920251846313,-0.013308491557836533,-0.01377105712890625,-0.03178131580352783,0.012203842401504517,-0.0001144111156463623,0.0349368117749691,0.024095583707094193,0.0310690738260746,0.010508093982934952,0.01876639947295189,0.033442314714193344,0.029322843998670578,-0.027442818507552147,-0.00800817459821701,-0.034445177763700485,0.0013510994613170624,-0.012613918632268906,0.03099701926112175,0.005646616220474243,0.00039306655526161194,-0.025834016501903534,-0.02802610583603382,0.0056222788989543915,-0.017745789140462875,-0.016401875764131546,0.025051232427358627,-0.018618524074554443,-0.015896601602435112,0.027421701699495316,0.013953529298305511,-0.02029312588274479,0.01081601157784462,0.01800490915775299,-0.03172145411372185,0.006671689450740814,0.008159641176462173,-0.0013909675180912018,0.034242894500494,-0.023606285452842712,0.019361305981874466,-0.018972018733620644,-0.03057522512972355,0.0243399478495121,-0.017132937908172607,0.00167861208319664,0.018782228231430054,-0.02980925515294075,-0.03057103604078293,0.012159321457147598,0.03114021196961403,-0.003779139369726181,0.025150775909423828,0.012550022453069687,0.01018938422203064,-0.02277042716741562,0.03398994728922844,0.016358591616153717,0.005522269755601883,0.025260861963033676,-0.030686691403388977,0.0076958537101745605,-0.016811737790703773,-0.0036267004907131195,0.011701181530952454,0.01581774652004242,0.008193090558052063,-0.0276411771774292,-0.022351164370775223,0.0006235912442207336,-0.00618540495634079,-0.02989337034523487,0.03518451377749443,0.004492256790399551,-0.02537679299712181,0.015663787722587585,0.01551782712340355,-0.017520202323794365,0.017908722162246704,-0.022155124694108963,0.012374330312013626,0.03392517939209938,0.023576106876134872,0.01763174682855606,-0.007266117259860039,0.006704811006784439,0.01246306300163269,0.008723102509975433,-0.007235433906316757,0.004983115941286087,-0.014465397223830223,-0.020188111811876297,-0.032958440482616425,-0.029118172824382782,-0.022418402135372162,0.034138936549425125,0.007146969437599182,-0.03230787813663483,-0.018256034702062607,0.008342120796442032,-0.0106895100325346,-0.010109297931194305,-0.013411246240139008,-0.008722851052880287,0.004108112305402756,0.0021149329841136932,0.022945784032344818,0.02285512164235115,0.029392551630735397,-0.0011361129581928253,-0.0159471333026886,0.00012186914682388306,-0.023650512099266052,0.014611486345529556,-0.0043089427053928375,-0.011438446119427681,-0.030278995633125305,0.017211303114891052,0.01993483677506447,0.032579537481069565,-0.012652503326535225,0.010761089622974396,0.0013462342321872711,-0.022748935967683792,-0.022326743230223656,0.0182887502014637,-0.020511552691459656,0.026006553322076797,0.012477122247219086,0.012196734547615051,0.02352055534720421,0.017479144036769867,0.01540294662117958,0.018530063331127167,-0.015155959874391556,-0.018938623368740082,-0.006542908027768135,0.01982744038105011,0.024993833154439926,0.026300426572561264,-0.011265598237514496,-0.004531595855951309,-0.024529287591576576,0.02202129364013672,-0.023683106526732445,-0.014696018770337105,0.02949162945151329,0.008679032325744629,-0.014951128512620926,-0.02404899336397648,-0.024559788405895233,0.028822343796491623,-0.03264301270246506,0.030861761420965195,0.028570186346769333,0.0022129379212856293,-0.0028626732528209686,0.02777579054236412,0.015749171376228333,0.03376826271414757,0.028850439935922623,-0.02341998554766178,0.022039979696273804,0.018011778593063354,-0.025357583537697792,0.017152566462755203,-0.018550431355834007,-0.02127828821539879,0.0006662867963314056,-0.004388622939586639,-0.00960291363298893,-0.023421697318553925,0.019537072628736496,0.035609643906354904,-0.007913636043667793,-0.024063358083367348,-0.001841578632593155,-0.031028935685753822,-0.02900199592113495,-0.011897223070263863,0.022439461201429367,-0.027361219748854637,-0.005699405446648598,-0.0185453649610281,-0.03288533166050911,-0.008039670065045357,-0.0020803920924663544,-0.006005031988024712,0.02611197903752327,0.014305796474218369,0.022235531359910965,0.013988900929689407,0.0037470534443855286,0.01938425749540329,-0.0227839145809412,0.018197625875473022,0.01701120287179947,-0.015157384797930717,-0.001225735992193222,-0.0270170196890831,-0.03125171735882759,-3.945454955101013e-05,0.006394833326339722,-0.007703777402639389,0.011033929884433746,-0.027571508660912514,-0.019631514325737953,0.02464984357357025,-0.034756146371364594,0.005607906728982925,0.027495447546243668,0.02677454799413681,0.012182801961898804,-0.03253217041492462,0.004597749561071396,-0.012559227645397186,-0.010039633139967918,0.02736401930451393,-0.012137230485677719,-0.02557753026485443,-0.028669217601418495,0.022549420595169067,0.001723308116197586,0.03527374938130379,0.007303692400455475,-0.0332828126847744,0.008835989981889725,0.032680150121450424,0.022151056677103043,0.010717485100030899,-0.02683228813111782,-0.02141552045941353,0.024250511080026627,-0.023880640044808388,0.008147623389959335,-0.004575822502374649,0.011967167258262634,0.002336859703063965,-0.027202513068914413,-0.014235999435186386,0.031149689108133316,0.004204131662845612,0.01810910925269127,-0.018017956987023354,0.028272878378629684,-0.007645139470696449,-0.012037992477416992,0.007244803011417389,-0.012796904891729355,-0.014351768419146538,-0.0051105450838804245,-0.002038944512605667,-0.020312633365392685,0.012207627296447754,-0.034613657742738724,0.021923687309026718,0.03312370553612709,0.005777958780527115,-0.008344940841197968,-0.03271074593067169,0.01677151769399643,0.029263582080602646,0.03053305670619011,0.0031846463680267334,0.011873628944158554,0.034221772104501724,0.005330689251422882,-0.017241772264242172,-0.03390815481543541,0.015614677220582962,0.013912264257669449,0.031738732010126114,-0.018182333558797836,0.015340112149715424,-0.011816225945949554,-0.008876251056790352,0.02083880826830864,-0.03273849934339523,0.02632632851600647,0.016610659658908844,-0.021225690841674805,0.018224839121103287,-0.008983297273516655,0.0032141804695129395,-0.009559230878949165,-0.03496833145618439,-0.0036988556385040283,0.017425701022148132,-0.004155244678258896,-0.017586171627044678,0.0011316277086734772,0.006517402827739716,-0.009964846074581146,-0.02769586071372032,-0.019147971644997597,-0.00582260824739933,0.012862242758274078,0.03175977244973183,0.0006628148257732391,0.012787219136953354,0.020548969507217407,-0.015573276206851006,-0.01185060478746891,0.023689497262239456,0.025571007281541824,0.0084628164768219,-0.02759937383234501,0.020270943641662598,-0.029517682269215584,0.017850801348686218,0.004232652485370636,0.011536240577697754,-0.034812428057193756,-0.012556260451674461,0.015167735517024994,0.027488794177770615,-0.010224662721157074,0.031848203390836716,-0.007969958707690239,-0.021540945395827293,-0.015465838834643364,0.0022223927080631256,-0.006347618997097015,0.017285853624343872,-0.019765067845582962,-0.01015966385602951,-0.03539332374930382,0.029151547700166702,-0.0067201051861047745,-0.028154004365205765,-0.0017233602702617645,-6.518885493278503e-05,0.00991886481642723,-0.0039200372993946075,0.022466540336608887,-0.012322276830673218,-0.010689662769436836,-0.008481064811348915,0.0063760727643966675,0.028615009039640427,-0.0016433373093605042,0.027479607611894608,0.028055232018232346,-0.018594641238451004,-0.0030685774981975555,-0.016859252005815506,0.014856215566396713,-0.012556038796901703,0.010894641280174255,0.0021337345242500305,-0.023445194587111473,-0.02401050552725792,-0.034883033484220505,-0.019977910444140434,0.009976942092180252,0.0021759234368801117,0.026860784739255905,-0.03140408918261528,-0.0010436363518238068,-0.03202321007847786,0.00020905956625938416,0.013012021780014038,-0.032037265598773956,0.031541164964437485,-0.01109253615140915,0.031644146889448166,-0.005994681268930435,0.0202612467110157,0.03246701881289482,-0.013002626597881317,-0.00868166796863079,0.018733195960521698,-0.030576106160879135,0.021140288561582565,-0.022432617843151093,0.033170122653245926,-0.023405905812978745,-0.014696836471557617,0.02664947882294655,-0.01554952934384346,0.03061254695057869,0.02457212656736374,0.03264326974749565,-0.034617215394973755,0.0004002787172794342,-0.011746913194656372,0.008507274091243744,-0.026966113597154617,0.014644786715507507,-0.001691918820142746,-0.01688173972070217,-0.032128702849149704,0.018681008368730545,-0.01292518712580204,0.02635272592306137,0.00635765865445137,0.010862156748771667,-0.005416585132479668,-0.004947284236550331,-0.012132488191127777,-0.030925031751394272,0.022453442215919495,-0.02249074913561344,0.02081562951207161,-0.012045806273818016,0.022373896092176437,0.030607935041189194,-0.0218430757522583,0.02949019894003868,0.0008704438805580139,-0.02728325128555298,0.014578990638256073,0.020222831517457962,0.03148255869746208,-0.03399715572595596,0.03224865719676018,0.027075257152318954,0.035134341567754745,0.019464507699012756,-0.01736118271946907,0.027093272656202316,0.032639894634485245,-0.013656066730618477,-0.005837870761752129,0.027947578579187393,0.028749380260705948,0.023592378944158554,0.02736186608672142,-0.01835351437330246,-0.006161252036690712,-0.014268172904849052,0.01856207475066185,0.008900441229343414,-0.027587611228227615,-0.004486130550503731,-0.029123397544026375,-0.03361131623387337,0.0325581394135952,-0.017965037375688553,0.0159403458237648,-0.007952805608510971,-0.007232116535305977,-2.3066997528076172e-05,0.0278545580804348,-0.004940573126077652,0.029552344232797623,0.020896706730127335,0.02450031042098999,-0.03239072859287262,-0.016699833795428276,-0.02909729816019535,-0.007585309445858002,-0.007397213950753212,0.007257279008626938,0.03199895843863487,0.016032326966524124,-0.02485205978155136,-0.022397980093955994,0.026968058198690414,0.003555145114660263,0.010089457035064697,-0.01867983303964138,-0.004355330020189285,0.010168034583330154,-0.023436620831489563,0.023309338837862015,0.017798002809286118,-0.020827580243349075,-0.01464574784040451,-0.008396463468670845,0.005558077245950699,-0.01310071349143982,0.034165043383836746,-0.0344003327190876,-0.020185697823762894,-0.021677806973457336,0.009656444191932678,0.005068104714155197,-0.010177003219723701,0.030480649322271347,-0.030830468982458115,0.01258750632405281,-0.01965184323489666,-0.0081324502825737,-0.03439287468791008,-0.026660967618227005,-0.030301759019494057,0.015581212937831879,-0.01341094821691513,0.018682170659303665,-0.019355319440364838,-0.008848736062645912,0.00432310625910759,0.0299258790910244,-0.00962548702955246,0.020704351365566254,0.009852565824985504,0.021721523255109787,0.022561009973287582,0.014493428170681,-0.010769546031951904,-0.010023802518844604,0.013903617858886719,0.01946580410003662,-0.0019061937928199768,0.017902694642543793,-0.021486397832632065,0.020130649209022522,-0.004382673650979996,-0.024577567353844643,-0.017353003844618797,-0.02727493643760681,0.007204193621873856,-0.021180741488933563,-0.010227268561720848,-0.002237677574157715,-0.021791454404592514,0.0009170584380626678,-0.004532592371106148,0.011312216520309448,0.025800272822380066,-0.021559614688158035,0.019526652991771698,-0.0007566735148429871,-0.02041267603635788,-0.016196925193071365,0.009090639650821686,0.007436193525791168,-0.0011535808444023132,-0.01778019778430462,0.018010560423135757,0.005298960953950882,-0.034718967974185944,-0.006311668083071709,-0.009689731523394585,-0.015239626169204712,-0.019810635596513748,-0.02897365763783455,0.0351751409471035,-0.032621949911117554,0.03319919481873512,-0.028075138106942177,-0.00866490975022316,-0.014630952849984169,-0.019116070121526718,0.012697696685791016,0.020699813961982727,-0.02346077561378479,-0.01663391664624214,0.018229536712169647,-0.004317004233598709,0.008698180317878723,0.01867331564426422,-0.01320113055408001,-0.019820500165224075,0.01314631849527359,-0.013078397139906883,-0.023772913962602615,-0.01801484450697899,-0.01660589687526226,0.035561371594667435,0.006868690252304077,0.015381164848804474,0.004797313362360001,-0.02407664991915226,0.025772783905267715,-0.005551742389798164,-0.009247533977031708,0.029105599969625473,-0.018193237483501434,0.007252085953950882,-0.03038155660033226,0.018300820142030716,0.014186114072799683,-0.029367724433541298,0.019933465868234634,0.003930330276489258,-0.01844160631299019,0.030451197177171707,0.015338335186243057,0.012550581246614456,-0.013265201821923256,-0.019582873210310936,-0.019216954708099365,0.013417981564998627,0.009620938450098038,-0.02137492038309574,0.03249828889966011,0.020807765424251556,-0.013635989278554916,0.018477831035852432,-0.015139227733016014,0.01120813563466072,0.029726173728704453,-0.031590428203344345,-0.017757395282387733,-0.002018418163061142,0.005325913429260254,-0.029370496049523354,-0.023496488109230995,-0.003420662134885788,-0.00514921173453331,0.007703378796577454,0.004538141191005707,0.007326502352952957,0.0023676231503486633,0.004104901105165482,-0.0020613856613636017,0.01282580941915512,0.02437487244606018,-0.017823224887251854,-0.018501831218600273,0.015675541013479233,-0.02582620456814766,0.023209214210510254,0.016499239951372147,0.005165427923202515,-0.015505028888583183,0.001070912927389145,-0.028237633407115936,-0.032131489366292953,0.033632274717092514,-0.032033082097768784,-0.02963407337665558,-0.013873117044568062,0.002005618065595627,0.008179787546396255,-0.017599374055862427,-0.0034656748175621033,-0.007975349202752113,0.02988305315375328,0.030998360365629196,0.014678895473480225,-0.0002201460301876068,0.02678333967924118,-0.028835156932473183,0.014922045171260834,-0.020759209990501404,0.02785220369696617,-0.03157099336385727,0.013269741088151932,-0.02936369739472866,0.020844578742980957,0.006530344486236572,0.030644241720438004,-0.02693633735179901,0.022986039519309998,-0.023834407329559326,-0.019278042018413544,0.013584170490503311,-0.006011545658111572,-0.02819761261343956,-0.030389752238988876,-0.009272323921322823,0.009888499975204468,0.031369809061288834,0.02626631036400795,0.000585310161113739,-0.021906927227973938,-0.0318412147462368,0.03190719708800316,-0.01991231180727482,-0.006281159818172455,-0.028818391263484955,-0.02468610741198063,0.006929837167263031,-0.008829321712255478,0.004089780151844025,-0.0002731345593929291,0.0018195882439613342,-0.00707659125328064,-0.001381073147058487,0.01552385464310646,0.026089955121278763,0.030186768621206284,-0.02913813665509224,-0.030189625918865204,-0.005337642505764961,-0.0027245208621025085,0.01971205696463585,0.033619966357946396,0.009171340614557266,-0.025366388261318207,-0.004042495042085648,0.023097429424524307,0.013176925480365753,-0.02525763213634491,0.0020845718681812286,-0.03448447585105896,-0.014391401782631874,0.024978693574666977,-0.015492279082536697,0.0218057818710804,-0.029131226241588593,0.03157515451312065,0.01703590899705887,0.023143213242292404,0.00975332036614418,0.002530239522457123,-0.017588764429092407,-0.019706888124346733,-0.02452569454908371,0.029515903443098068,-0.012395702302455902,0.0008700825273990631,-0.03357524797320366,0.009585283696651459,-0.012174513190984726,-0.02856530249118805,0.004420105367898941,-0.03290051221847534,-0.0035187676548957825,-0.029165813699364662,0.022578701376914978,-0.028363008052110672,0.005833052098751068,0.017683781683444977,-0.028536202386021614,0.023120149970054626,0.029086198657751083,-0.021892748773097992,0.0029906034469604492,0.010830111801624298,0.02957874909043312,0.027902480214834213,-0.029957568272948265,-0.029109539464116096,-0.03157922253012657,-0.01588360406458378,-0.007209191098809242,-0.012814395129680634,0.02353295311331749,-0.02461330033838749,-0.028504513204097748,-0.02791845053434372,-0.021080613136291504,0.034980881959199905,0.0045100487768650055,-0.006253093481063843,-0.010495727881789207,-0.02735443413257599,-0.012117186561226845,0.01881515607237816,0.024137571454048157,0.025759998708963394,0.0025426410138607025,-0.019471406936645508,-0.021084532141685486,0.03470906242728233,-0.032235708087682724,0.00845516100525856,-0.0033720172941684723,0.03315961733460426,0.020919974893331528,-0.009022798389196396,-0.029634272679686546,0.004691429436206818,-0.024980004876852036,-0.0037666745483875275,0.00894215703010559,0.01744028553366661,-0.009659187868237495,-0.024108342826366425,-0.030416758731007576,-0.0338284857571125,0.004479743540287018,-0.02173711732029915,0.0012952275574207306,-0.016919780522584915,-0.024168897420167923,0.02408188208937645,0.0202113538980484,0.02507643774151802,0.034259144216775894,-0.025840675458312035,-0.019011247903108597,-0.026887306943535805,0.023981325328350067,0.02104310318827629,0.028951402753591537,-0.024989835917949677,-0.019153233617544174,0.03481704369187355,-0.02835989184677601,-0.023785941302776337,0.013148240745067596,-0.03121977671980858,-0.010097682476043701,0.015175238251686096,0.029258374124765396,-0.004052493721246719,-0.03160502389073372,0.02021748200058937,0.03560493513941765,-0.026513509452342987,-0.0015778280794620514,-0.025834884494543076,-0.018236404284834862,0.012018799781799316,0.01668524369597435,0.014768294990062714,-0.03363872691988945,-0.008658094331622124,0.015221185982227325,-0.0033150576055049896,-0.011041156947612762,-0.018448323011398315,0.03386348858475685,-0.028587790206074715,-0.028132781386375427,0.026025518774986267,-0.021693013608455658,0.021581463515758514,-0.019687214866280556,-0.00483134388923645,-0.017255928367376328,0.029507692903280258,0.024759441614151,0.0017161108553409576,0.0008563436567783356,-0.01347835548222065,-0.01909003220498562,-0.013508908450603485,0.011694714426994324,-0.006423834711313248,0.024242069572210312,0.0051421187818050385,0.00039424747228622437,-0.022193893790245056,0.014407582581043243,-0.03303597494959831,0.00834432989358902,0.012814518064260483,0.006463218480348587,0.02513476461172104,0.00857166200876236,-0.009863561019301414,-0.024991249665617943,-0.03314658999443054,0.018024373799562454,0.019440632313489914,-0.02724204957485199,0.00956166535615921,-0.013132883235812187,0.03008052334189415,-0.012310134246945381,0.029562372714281082,0.025261234492063522,0.01975332573056221,0.024407312273979187,0.011138580739498138,0.012106496840715408,-0.030362607911229134,-0.008153494447469711,-0.00404849648475647,0.017328821122646332,-0.013839393854141235,0.016364403069019318,0.024249110370874405,0.01539921760559082,0.018381908535957336,-0.004760239273309708,0.017108086496591568,-0.012247366830706596,0.03093767538666725,-0.0009165778756141663,-0.002083282917737961,-0.031443312764167786,0.033031512051820755,-0.004996869713068008,0.026600323617458344,-0.02336447313427925,-0.029879482463002205,-0.005716545507311821,-0.028557147830724716,0.00686277449131012,0.0004810504615306854,-0.013096882030367851,0.022361889481544495,0.023137908428907394,-0.031533945351839066,-0.028611453250050545,0.020893685519695282,-0.021691421046853065,0.006891582161188126,-0.009511606767773628,0.006386514753103256,-0.019708288833498955,0.00011412426829338074,-0.012643234804272652,-0.016088657081127167,-0.017558613792061806,0.007977325469255447,0.023109763860702515,-0.0008801259100437164,-0.0003488026559352875,0.02946672961115837,0.0287894569337368,-0.005184629932045937,-0.029244616627693176,0.008381012827157974,0.010663524270057678,-0.028260555118322372,-0.0320383720099926,0.003746163100004196,0.03487471863627434,-0.031944628804922104,-0.017499174922704697,-0.012316606938838959,-0.03154691681265831,-0.021990224719047546,0.028033088892698288,0.027315545827150345,-0.026274695992469788,0.0007656216621398926,-0.029087450355291367,0.014833655208349228,-0.02439330890774727,-0.018200568854808807,-0.016553957015275955,0.005264353007078171,0.02386537566781044,-0.014947568997740746,0.006587423384189606,0.028436478227376938,-0.0021640360355377197,0.0036877505481243134,0.0026519522070884705,-0.0004562363028526306,0.021441787481307983,0.019324738532304764,-0.019127344712615013,0.03410221263766289,0.020550180226564407,-0.005588216707110405,0.031094137579202652,0.0019207894802093506,0.022568386048078537,-0.03032475896179676,0.032058004289865494,0.033667515963315964,-0.02668614685535431,-0.0319659560918808,-0.010394454002380371,-0.021957598626613617,0.009542196989059448,0.01589759811758995,-0.004550576210021973,0.025061260908842087,0.001353345811367035,-0.010496847331523895,-0.030484672635793686,0.011350758373737335,-0.03365020453929901,-0.0001221299171447754,0.005220234394073486,-0.020001722499728203,0.010729290544986725,0.006942529231309891,0.023900803178548813,0.0223374105989933,-0.028902718797326088,-0.02649935707449913,-0.013107981532812119,-0.02569284290075302,0.011197779327630997,-0.023399636149406433,-0.027266958728432655,0.010402210056781769,0.02155422419309616,-0.010382942855358124,-0.03558773547410965,0.005047552287578583,0.01830228418111801,0.027898985892534256,0.003388643264770508,0.024793893098831177,-0.0319334976375103,0.034167077392339706,-0.023061996325850487,-0.024377649649977684,0.025631193071603775,-0.007936142385005951,0.022040534764528275,-0.025015151128172874,0.02702050283551216,0.03387125954031944,0.010814130306243896,0.02881050482392311,-0.02550450898706913,-0.007886175066232681,0.010870669037103653,0.020181789994239807,-0.01906994916498661,0.022726234048604965,-0.01175430417060852,-0.01906268112361431,0.0069861747324466705,-0.028446706011891365,-0.03277852013707161,0.011875148862600327,0.012164715677499771,0.013733889907598495,-0.004683520644903183,-0.02611912228167057,-0.028690608218312263,0.034174952656030655,-0.030961791053414345,0.010764036327600479,0.02900644764304161,0.027284841984510422,-0.022518008947372437,-0.0115156639367342,-0.02855474315583706,0.022402461618185043,-0.03351568803191185,-0.03287810832262039,-0.02384290099143982,0.029132094234228134,0.02314954623579979,0.023930195719003677,0.027403119951486588,-0.016656463965773582,-0.019917404279112816,-0.02194053865969181,0.011784225702285767,0.01389235258102417,0.007410932332277298,-0.027475690469145775,0.003172595053911209,-0.018951458856463432,-0.007023109123110771,-0.005528897047042847,0.0017752721905708313,-0.031314969062805176,0.030485671013593674,-0.01519719697535038,0.011159002780914307,0.024594426155090332,0.01439177617430687,0.025011416524648666,0.02016725391149521,0.02615148201584816,0.0075377970933914185,0.022810671478509903,-0.015524078160524368,-0.019244451075792313,0.017053760588169098,0.009370889514684677,-0.0013392791152000427,-0.030125316232442856,0.01167013868689537,0.02313404530286789,-0.004123378545045853,0.008205026388168335,0.015899304300546646,-0.035270679742097855,-0.005876017734408379,-0.013248750939965248,-0.018254229798913002,0.021828871220350266,0.03541026636958122,0.005698569118976593,0.022227995097637177,-0.026495784521102905,0.006291918456554413,-0.004618998616933823,-0.022027144208550453,0.007322955876588821,0.011368770152330399,-0.0017249956727027893,0.015165843069553375,0.017146751284599304,0.03239435330033302,0.0020703040063381195,0.0012724362313747406,-0.0005111806094646454,0.00492868572473526,-0.023157797753810883,-0.0043960437178611755,-0.030201159417629242,-0.025051042437553406,-0.030420994386076927,0.02648569643497467,-0.020525000989437103,-0.002882201224565506,0.003818172961473465,0.03154345229268074,0.01620856672525406,-0.02543332800269127,0.03493127599358559,-0.033828094601631165,0.00464349240064621,0.03263233229517937,0.030973289161920547,-0.00827765092253685,-0.023834343999624252,0.015682168304920197,0.02753080055117607,-0.019039278849959373,-0.005651477724313736,-0.02171972021460533,0.013638831675052643,0.007601790130138397,0.0177033431828022,-0.012253502383828163,-0.03447537124156952,-0.015040330588817596,-0.02793153002858162,-0.008603913709521294,0.012979306280612946,-0.02971186861395836,-0.001667078584432602,-0.0349421501159668,-0.02530890703201294,-0.025004953145980835,-0.012160191312432289,-0.01809563860297203,0.005497295409440994,0.02183229848742485,0.02692956104874611,0.011252764612436295,-0.0002363249659538269,-0.006364414468407631,0.024250101298093796,-0.020454660058021545,0.025814615190029144,-0.03438614681363106,-0.02665608748793602,0.009473726153373718,-0.014709634706377983,0.0066632479429244995,0.031117867678403854,0.01631184294819832,0.034956034272909164,-0.015127476304769516,-0.01705465279519558,-0.0045346952974796295,-0.007192850112915039,-0.015709634870290756,-0.002217363566160202,0.03226500377058983,-0.019577061757445335,0.020056534558534622,0.016590919345617294,0.02068278193473816,0.009635046124458313,-0.013193394988775253,0.01473977044224739,-0.016821274533867836,-0.021922044456005096,0.033385541290044785,0.029603127390146255,-0.025810834020376205,0.029009055346250534,0.007405713200569153,0.00915452465415001,0.03442380204796791,-0.0018752813339233398,-0.011358866468071938,0.02242055907845497,-0.009225497022271156,-0.008573630824685097,-0.01440197229385376,0.03515317663550377,0.01704144850373268,-0.005789680406451225,-0.0007125139236450195,0.002499561756849289,-0.02117130160331726,0.01014016568660736,-0.02771887183189392,-0.0016651824116706848,-0.00670124776661396,-0.014582732692360878,0.03303173556923866,0.010002154856920242,0.017204705625772476,-0.02350914105772972,0.005691908299922943,0.009570542722940445,0.01853996142745018,-0.010538484901189804,-0.007013432681560516,-0.028996124863624573,0.021706316620111465,0.023841314017772675,0.01675315946340561,0.01815056800842285,0.021391063928604126,0.03366445377469063,0.01169603317975998,0.012892268598079681,0.011233385652303696,-0.020168598741292953,0.008960634469985962,0.010760422796010971,-0.028426887467503548,-0.010569853708148003,-0.022035518661141396,-0.022819966077804565,0.02481934055685997,0.028095941990613937,-0.0049233268946409225,0.010946668684482574,-0.008364442735910416,0.007572084665298462,-0.005978818982839584,-0.018579088151454926,-0.015026276931166649,0.035475436598062515,0.006020162254571915,-0.019530560821294785,0.00405416265130043,-0.035630520433187485,0.00031504034996032715,0.02741619572043419,0.004119366407394409,0.00850929319858551,-0.0336417518556118,-0.006717456504702568,0.02107442542910576,-0.026185816153883934,-0.01670745573937893,0.02413591369986534,0.010256379842758179,0.016695477068424225,-0.033304180949926376,0.022730335593223572,-0.007789734750986099,0.007505923509597778,0.028867904096841812,-0.032912857830524445,0.010218285024166107,-0.03228653967380524,0.026440665125846863,0.010486841201782227,0.003973908722400665,-0.014307554811239243,0.013465546071529388,-0.01853765919804573,0.006827056407928467,0.02999226376414299,-0.02680721879005432,-0.010190155357122421,0.0083417147397995,0.006199229508638382,0.0004911385476589203,0.030725713819265366,-0.009280843660235405,0.009212575852870941,0.01892726495862007,-0.0069247055798769,0.023336883634328842,0.02332499250769615,0.01590355858206749,-0.008713139221072197,0.03102177008986473,-0.020636513829231262,0.01103806123137474,0.007171083241701126,0.025208119302988052,-0.029273750260472298,0.006226286292076111,-0.0205675158649683,0.018929705023765564,0.012264050543308258,-0.02778160572052002,-0.0022359490394592285,0.009990513324737549,0.015213936567306519,0.03177276626229286,0.016038991510868073,0.006811074912548065,0.019051220268011093,-0.03379446268081665,0.023811716586351395,-0.004199080169200897,0.020212989300489426,0.010227251797914505,-0.0018834061920642853,0.02513965591788292,-0.020819902420043945,0.010071482509374619,0.01565627008676529,-0.012710077688097954,0.012938104569911957,-0.03532683104276657,-0.01803816668689251,0.017364468425512314,0.018407847732305527,-0.03278205916285515,0.012359578162431717,0.003358159214258194,0.03486231341958046,-0.034835174679756165,-0.008511969819664955,-0.020226359367370605,-0.02173137292265892,-0.005833102390170097,-0.032824140042066574,0.027980443090200424,-0.012635743245482445,0.012514002621173859,-0.0210153516381979,0.00019257515668869019,-0.025301184505224228,0.028745796531438828,0.030120600014925003,0.028117511421442032,-0.012502649798989296,0.02222811058163643,-0.02983938157558441,0.01638716086745262,-0.004408340901136398,-0.029595496132969856,-0.02866254188120365,-0.033421020954847336,0.006692543625831604,-0.012917416170239449,-0.016448698937892914,0.03400016203522682,-0.01088128425180912,0.012046333402395248,-0.006287239491939545,0.021538540720939636,0.010657701641321182,0.022616412490606308,0.009325660765171051,-0.007827440276741982,0.031565356999635696,-0.002546112984418869,-0.021380122750997543,0.011114004999399185,-0.0043337903916835785,-0.0264868326485157,0.004671953618526459,-0.008298184722661972,-0.014222558587789536,-0.017045218497514725,-0.015198580920696259,-0.014462947845458984,0.003509245812892914,0.034502435475587845,-0.020933398976922035,-0.016661424189805984,-0.023940959945321083,-0.001355201005935669,0.002504069358110428,-0.024514049291610718,0.01631319895386696,-0.03203098103404045,0.033055808395147324,0.00672101229429245,-0.00359947606921196,-0.012788062915205956,0.016035709530115128,0.026079785078763962,-0.023360300809144974,-0.008952060714364052,0.02629128098487854,-0.0066931042820215225,-0.02629786729812622,-0.011477351188659668,0.0012336783111095428,-0.006667379289865494,-0.0244748555123806,-0.022374719381332397,0.009656742215156555,0.024505004286766052,0.032490041106939316,-0.004036761820316315,0.013741187751293182,-0.028365038335323334,0.019030969589948654,0.03412683680653572,0.0185980424284935,-0.014120737090706825,0.02911854162812233,-0.03382420167326927,-0.004285596311092377,-0.008849136531352997,-0.03562380373477936,-0.02037413790822029,-0.026020923629403114,0.009598962962627411,-0.002970729023218155,0.016402628272771835,-0.00803408958017826,0.029459994286298752,0.004045289009809494,0.029605064541101456,0.02900172397494316,-0.030287565663456917,-0.023984676226973534,0.02151167020201683,0.03374185785651207,-0.030482672154903412,0.000522710382938385,-0.013730751350522041,0.033623676747083664,0.02966870740056038,0.025992952287197113,0.01921941712498665,-0.003350038081407547,0.032954927533864975,-0.016712505370378494,0.0017651505768299103,-0.00939703918993473,-0.0260537788271904,-0.016924522817134857,0.008659280836582184,-0.0031864680349826813,-0.023658953607082367,-0.004540406167507172,0.0061680711805820465,-0.02498754858970642,0.021569136530160904,-0.03036385402083397,0.0003416910767555237,-0.02921510674059391,-0.03220551833510399,-0.004436485469341278,0.03241339698433876,0.03376225754618645,0.012836024165153503,0.0276821069419384,-0.019523169845342636,0.02010689303278923,0.021791618317365646,-0.03413214161992073,-0.027368977665901184,0.015429362654685974,0.0033002160489559174,-0.024174287915229797,-0.02818295545876026,0.025811757892370224,0.0039014779031276703,-7.903948426246643e-05,-0.03452553600072861,0.03133546933531761,-0.023609280586242676,0.015913840383291245,-0.004294406622648239,0.0011637769639492035,0.01753608137369156,-0.00951390154659748,-0.010019497945904732,0.028470855206251144,-0.02736715041100979,0.01589316502213478,-0.009216811507940292,-0.011933272704482079,0.023907754570245743,0.006029464304447174,-0.033250536769628525,0.03191510960459709,-0.01772153377532959,0.03087448701262474,-0.011208722367882729,0.03482282534241676,0.010535772889852524,-0.0017252825200557709,0.013633325695991516,-0.001110609620809555,-0.017713705077767372,0.019536040723323822,0.023164991289377213,-0.00447423942387104,0.0335935615003109,0.002268068492412567,-0.018887661397457123,-0.019462475553154945,0.02402961254119873,-0.014467410743236542,0.02255740389227867,-0.03469263017177582,0.0012302510440349579,-0.024676630273461342,0.012668691575527191,0.029004376381635666,0.01405399665236473,-0.01227952353656292,-0.03350395709276199,-0.01692143641412258,-0.021064886823296547,0.03410419449210167,-0.019202254712581635,0.013809051364660263,0.028670210391283035,0.012875638902187347,-0.03133948892354965,-0.004056993871927261,-0.010599933564662933,0.02301114797592163,-0.003350142389535904,-0.00188373401761055,0.03177040442824364,0.008498642593622208,0.01655551791191101,-0.011496758088469505,0.02335621416568756,0.005135037004947662,-0.007174048572778702,0.006882615387439728,-0.028112314641475677,0.0013132132589817047,0.016379036009311676,-0.03344235569238663,-0.01897071674466133,0.022375766187906265,0.0008099302649497986,-0.0012165084481239319,0.0036445967853069305,-0.016029274091124535,0.029532957822084427,-0.003541167825460434,-0.013003924861550331,0.018799632787704468,-0.02972671017050743,-0.006587624549865723,0.0035995841026306152,-0.011083658784627914,0.01943765953183174,-0.03049997054040432,-0.010296201333403587,-0.015010638162493706,0.03304761275649071,0.01425304263830185,-0.02664153277873993,0.013841595500707626,-0.0007573962211608887,0.03269379213452339,0.019709449261426926,-0.02085813134908676,0.03183535113930702,-0.006387693807482719,-0.008132480084896088,0.010679561644792557,0.03548252955079079,0.010776035487651825,-0.03445941209793091,-0.011400895193219185,0.03325666859745979,-0.01258760318160057,-0.017181959003210068,-0.028467388823628426,-0.019714761525392532,-0.019526613876223564,0.008529536426067352,0.014268770813941956,0.034084830433130264,0.023438159376382828,0.0005277134478092194,0.019260570406913757,0.020413830876350403,-0.0308044645935297,0.01802125573158264,-0.024430979043245316,0.0275791697204113,-0.01553369127213955,0.007410280406475067,-0.0003800131380558014,0.016569405794143677,0.005555007606744766,-0.025906965136528015,0.014467526227235794,0.021067727357149124,-0.018598727881908417,-0.02316809631884098,-0.024319082498550415,-0.01737697795033455,-0.004502713680267334,0.0026703737676143646,-0.0002518966794013977,-0.009446041658520699,0.022162795066833496,0.0018874071538448334,-0.02073759399354458,-0.009451786056160927,-0.020997673273086548,-0.012599524110555649,-0.033689454197883606,0.006240367889404297,-0.027672743424773216,0.013813052326440811,0.024465706199407578,-0.02656884491443634,-0.018847551196813583,-0.02821916528046131,0.009531095623970032,0.0069105364382267,-0.018433844670653343,0.021574314683675766,0.01481952890753746,-0.03226923197507858,-0.0019426755607128143,-0.015374619513750076,-0.006192505359649658,0.01988588646054268,-0.0038414373993873596,-0.02480406127870083,0.025122664868831635,-0.03264449164271355,-0.012265466153621674,0.013761196285486221,0.031567465513944626,0.03466223552823067,-0.00839000940322876,0.011917736381292343,-0.03136540949344635,-0.006949298083782196,-0.011109160259366035,0.01013835147023201,-0.023400090634822845,0.007715974003076553,0.018451247364282608,0.027833830565214157,-0.006038840860128403,0.032628800719976425,-0.03374307230114937,-0.010120507329702377,0.013539817184209824,0.009158089756965637,0.016819201409816742,-0.023699114099144936,0.021990444511175156,-0.03351873904466629,-0.024488508701324463,-0.0024288631975650787,-0.034696679562330246,-0.03394746035337448,-0.03170473501086235,0.028713885694742203,0.007834106683731079,-0.011395404115319252,-0.0014678165316581726,-0.03112923726439476,-0.03373038023710251,-0.024906396865844727,-0.03455137461423874,0.023496881127357483,-0.012497536838054657,-0.00964086502790451,-0.03075520135462284,0.005915038287639618,-0.005358364433050156,-0.024313846603035927,0.0228985957801342,0.03010391816496849,-0.02545640803873539,0.020235013216733932,-0.0057991743087768555,-0.0003371797502040863,0.015201736241579056,-0.006511347368359566,0.030344408005475998,0.021973781287670135,-0.02318328246474266,-0.02173437550663948,-0.03538571670651436,0.01143449917435646,-0.026863813400268555,-0.029934965074062347,-0.022891685366630554,-0.03530970960855484,-0.029080111533403397,0.03185589239001274,0.019949480891227722,0.031643789261579514,-0.017324324697256088,-0.01464826799929142,-0.012530995532870293,0.0006975196301937103,-0.025634482502937317,0.005235787481069565,-0.02288924530148506,0.005643576383590698,0.032714199274778366,0.006032109260559082,0.026051577180624008,-0.02543604001402855,-0.005040135234594345,-0.02205280400812626,-0.003962390124797821,-0.014207031577825546,-0.02027815580368042,-0.034497879445552826,-0.013242602348327637,0.004782799631357193,-0.0062828753143548965,-0.03326232731342316,0.026827801018953323,0.02648167684674263,-0.02153218723833561,0.003630544990301132,0.02371460571885109,-0.033916011452674866,-0.031557150185108185,0.019816622138023376,-0.0007073618471622467,0.011372789740562439,-0.014851963147521019,0.006475377827882767,0.023687172681093216,-0.008737411350011826,-0.01153590902686119,-0.0340067557990551,-0.005511011928319931,0.02263091504573822,-0.03375246003270149,-0.002758808434009552,0.02603338658809662,-0.010193383321166039,-0.013195298612117767,-0.01077256165444851,-0.014469897374510765,0.004274509847164154,-0.03438585624098778,0.013647757470607758,-0.009019851684570312,-0.004547089338302612,-0.0024096108973026276,0.019951235502958298,-0.022184450179338455,-0.03249942138791084,-0.02583390101790428,-0.026199661195278168,-0.01738816127181053,0.028207700699567795,-0.02762911282479763,-0.020993854850530624,-0.029114417731761932,-0.017941534519195557,-0.0010026134550571442,-0.02177734673023224,0.00037750229239463806,0.012069247663021088,-0.006076375022530556,0.015409283339977264,0.008195273578166962,0.034500282257795334,-0.0018233433365821838,0.030955690890550613,0.026731882244348526,0.017073161900043488,0.02021191641688347,-0.023917922750115395,-0.023919489234685898,0.01525154709815979,0.012967906892299652,0.032229844480752945,-0.004650026559829712,-0.006565319374203682,0.024483460932970047,0.001153409481048584,0.0335293747484684,-0.018216904252767563,-0.01171792857348919,0.0015431419014930725,0.019048016518354416,-0.03130956366658211,-0.00999700278043747,0.025937113910913467,0.00743648037314415,0.025249239057302475,-0.012097673490643501,-0.02251364290714264,-0.02438243478536606,-0.020079661160707474,-0.026839563623070717,0.017698906362056732,0.009599480777978897,-0.022850871086120605,0.03273559734225273,0.01016782596707344,0.013291329145431519,-0.015048325061798096,0.024726353585720062,-0.02519245818257332,0.026033107191324234,-0.019407643005251884,0.015169143676757812,-0.012920141220092773,0.023202471435070038,-0.02995254471898079,-0.006963524967432022,-0.009639868512749672,-0.021356144919991493,-0.017542649060487747,-0.01002161018550396,0.0037031807005405426,0.025350213050842285,-0.005868831649422646,0.03500716760754585,-0.01699536293745041,-0.018386244773864746,-0.001862950623035431,-0.006465481594204903,0.011344023048877716,0.03299950435757637,0.012228216975927353,-0.02988462522625923,-0.012202097102999687,-0.007095158100128174,-0.03252130374312401,0.011042438447475433,0.03117520734667778,0.017737630754709244,-0.0007071904838085175,-0.002718977630138397,-0.01672477461397648,-0.00396762415766716,0.03132275119423866,-0.018361514434218407,0.005713772028684616,-0.026204340159893036,-0.009766489267349243,0.00206809863448143,-0.026967832818627357,0.009703535586595535,-0.030668707564473152,-0.014589428901672363,0.024853501468896866,0.03350193426012993,-0.0027922913432121277,-0.025526493787765503,-0.029324039816856384,-0.008776860311627388,-0.01822528801858425,0.028389688581228256,-0.02545960620045662,0.02149762585759163,0.006790325045585632,-0.010862572118639946,0.029112402349710464,0.01987461745738983,-0.001249123364686966,-0.024206358939409256,-0.010511629283428192,0.011515259742736816,0.030945364385843277,-0.012052072212100029,-0.014842255041003227,-0.0348946712911129,0.021951571106910706,0.03485807403922081,0.02458852529525757,-0.019900411367416382,0.025584932416677475,-0.0108274444937706,0.01867210865020752,0.02088269218802452,-0.02911766991019249,0.008838154375553131,0.014257960021495819,-0.02147027850151062,0.03301961347460747,0.02788126841187477,0.029848750680685043,-0.00032218173146247864,-0.019108522683382034,-0.019517112523317337,0.012623123824596405,-0.007095307111740112,0.02838635817170143,0.02991088107228279,0.0027560368180274963,-0.0292387455701828,0.014176085591316223,0.03196054324507713,-0.008970336988568306,-0.018691105768084526,-0.00835452787578106,0.005116794258356094,-0.026498714461922646,0.019072741270065308,0.015265945345163345,-0.013654705137014389,-0.013230174779891968,-0.016946125775575638,0.02791772410273552,0.02118191495537758,0.010151058435440063,-0.001601826399564743,0.008921913802623749,0.03445715084671974,0.011307775974273682,-0.017811797559261322,0.013815365731716156,-0.014172881841659546,-0.001268181949853897,-0.023002762347459793,-0.0010449066758155823,0.001863177865743637,-0.021659910678863525,0.02296072244644165,0.03298531100153923,-0.02987273409962654,0.010348733514547348,-0.024671563878655434,-0.007098488509654999,0.017107725143432617,-0.000626932829618454,0.010822571814060211,-0.011571399867534637,0.03408300504088402,-0.016767451539635658,0.006684478372335434,